{"learner":{"attributes":{},"feature_names":["d_win_rate_last_20","d_win_rate_surface","d_experience","d_rest_days","d_matches_10d","d_matches_30d","is_hard","is_clay","is_grass","is_grand_slam","is_masters","best_of","d_svc_pts_w","d_ret_pts_w","d_ace_pg","d_bp_save","d_bp_win"],"feature_types":["float","float","float","float","float","float","int","int","int","int","int","int","float","float","float","float","float"],"gradient_booster":{"model":{"cats":{"enc":[],"feature_segments":[],"sorted_idx":[]},"gbtree_model_param":{"num_parallel_tree":"1","num_trees":"1500"},"iteration_indptr":[0,1,2,3,4,5,6,7,8,9,10,11,12,13,14,15,16,17,18,19,20,21,22,23,24,25,26,27,28,29,30,31,32,33,34,35,36,37,38,39,40,41,42,43,44,45,46,47,48,49,50,51,52,53,54,55,56,57,58,59,60,61,62,63,64,65,66,67,68,69,70,71,72,73,74,75,76,77,78,79,80,81,82,83,84,85,86,87,88,89,90,91,92,93,94,95,96,97,98,99,100,101,102,103,104,105,106,107,108,109,110,111,112,113,114,115,116,117,118,119,120,121,122,123,124,125,126,127,128,129,130,131,132,133,134,135,136,137,138,139,140,141,142,143,144,145,146,147,148,149,150,151,152,153,154,155,156,157,158,159,160,161,162,163,164,165,166,167,168,169,170,171,172,173,174,175,176,177,178,179,180,181,182,183,184,185,186,187,188,189,190,191,192,193,194,195,196,197,198,199,200,201,202,203,204,205,206,207,208,209,210,211,212,213,214,215,216,217,218,219,220,221,222,223,224,225,226,227,228,229,230,231,232,233,234,235,236,237,238,239,240,241,242,243,244,245,246,247,248,249,250,251,252,253,254,255,256,257,258,259,260,261,262,263,264,265,266,267,268,269,270,271,272,273,274,275,276,277,278,279,280,281,282,283,284,285,286,287,288,289,290,291,292,293,294,295,296,297,298,299,300,301,302,303,304,305,306,307,308,309,310,311,312,313,314,315,316,317,318,319,320,321,322,323,324,325,326,327,328,329,330,331,332,333,334,335,336,337,338,339,340,341,342,343,344,345,346,347,348,349,350,351,352,353,354,355,356,357,358,359,360,361,362,363,364,365,366,367,368,369,370,371,372,373,374,375,376,377,378,379,380,381,382,383,384,385,386,387,388,389,390,391,392,393,394,395,396,397,398,399,400,401,402,403,404,405,406,407,408,409,410,411,412,413,414,415,416,417,418,419,420,421,422,423,424,425,426,427,428,429,430,431,432,433,434,435,436,437,438,439,440,441,442,443,444,445,446,447,448,449,450,451,452,453,454,455,456,457,458,459,460,461,462,463,464,465,466,467,468,469,470,471,472,473,474,475,476,477,478,479,480,481,482,483,484,485,486,487,488,489,490,491,492,493,494,495,496,497,498,499,500,501,502,503,504,505,506,507,508,509,510,511,512,513,514,515,516,517,518,519,520,521,522,523,524,525,526,527,528,529,530,531,532,533,534,535,536,537,538,539,540,541,542,543,544,545,546,547,548,549,550,551,552,553,554,555,556,557,558,559,560,561,562,563,564,565,566,567,568,569,570,571,572,573,574,575,576,577,578,579,580,581,582,583,584,585,586,587,588,589,590,591,592,593,594,595,596,597,598,599,600,601,602,603,604,605,606,607,608,609,610,611,612,613,614,615,616,617,618,619,620,621,622,623,624,625,626,627,628,629,630,631,632,633,634,635,636,637,638,639,640,641,642,643,644,645,646,647,648,649,650,651,652,653,654,655,656,657,658,659,660,661,662,663,664,665,666,667,668,669,670,671,672,673,674,675,676,677,678,679,680,681,682,683,684,685,686,687,688,689,690,691,692,693,694,695,696,697,698,699,700,701,702,703,704,705,706,707,708,709,710,711,712,713,714,715,716,717,718,719,720,721,722,723,724,725,726,727,728,729,730,731,732,733,734,735,736,737,738,739,740,741,742,743,744,745,746,747,748,749,750,751,752,753,754,755,756,757,758,759,760,761,762,763,764,765,766,767,768,769,770,771,772,773,774,775,776,777,778,779,780,781,782,783,784,785,786,787,788,789,790,791,792,793,794,795,796,797,798,799,800,801,802,803,804,805,806,807,808,809,810,811,812,813,814,815,816,817,818,819,820,821,822,823,824,825,826,827,828,829,830,831,832,833,834,835,836,837,838,839,840,841,842,843,844,845,846,847,848,849,850,851,852,853,854,855,856,857,858,859,860,861,862,863,864,865,866,867,868,869,870,871,872,873,874,875,876,877,878,879,880,881,882,883,884,885,886,887,888,889,890,891,892,893,894,895,896,897,898,899,900,901,902,903,904,905,906,907,908,909,910,911,912,913,914,915,916,917,918,919,920,921,922,923,924,925,926,927,928,929,930,931,932,933,934,935,936,937,938,939,940,941,942,943,944,945,946,947,948,949,950,951,952,953,954,955,956,957,958,959,960,961,962,963,964,965,966,967,968,969,970,971,972,973,974,975,976,977,978,979,980,981,982,983,984,985,986,987,988,989,990,991,992,993,994,995,996,997,998,999,1000,1001,1002,1003,1004,1005,1006,1007,1008,1009,1010,1011,1012,1013,1014,1015,1016,1017,1018,1019,1020,1021,1022,1023,1024,1025,1026,1027,1028,1029,1030,1031,1032,1033,1034,1035,1036,1037,1038,1039,1040,1041,1042,1043,1044,1045,1046,1047,1048,1049,1050,1051,1052,1053,1054,1055,1056,1057,1058,1059,1060,1061,1062,1063,1064,1065,1066,1067,1068,1069,1070,1071,1072,1073,1074,1075,1076,1077,1078,1079,1080,1081,1082,1083,1084,1085,1086,1087,1088,1089,1090,1091,1092,1093,1094,1095,1096,1097,1098,1099,1100,1101,1102,1103,1104,1105,1106,1107,1108,1109,1110,1111,1112,1113,1114,1115,1116,1117,1118,1119,1120,1121,1122,1123,1124,1125,1126,1127,1128,1129,1130,1131,1132,1133,1134,1135,1136,1137,1138,1139,1140,1141,1142,1143,1144,1145,1146,1147,1148,1149,1150,1151,1152,1153,1154,1155,1156,1157,1158,1159,1160,1161,1162,1163,1164,1165,1166,1167,1168,1169,1170,1171,1172,1173,1174,1175,1176,1177,1178,1179,1180,1181,1182,1183,1184,1185,1186,1187,1188,1189,1190,1191,1192,1193,1194,1195,1196,1197,1198,1199,1200,1201,1202,1203,1204,1205,1206,1207,1208,1209,1210,1211,1212,1213,1214,1215,1216,1217,1218,1219,1220,1221,1222,1223,1224,1225,1226,1227,1228,1229,1230,1231,1232,1233,1234,1235,1236,1237,1238,1239,1240,1241,1242,1243,1244,1245,1246,1247,1248,1249,1250,1251,1252,1253,1254,1255,1256,1257,1258,1259,1260,1261,1262,1263,1264,1265,1266,1267,1268,1269,1270,1271,1272,1273,1274,1275,1276,1277,1278,1279,1280,1281,1282,1283,1284,1285,1286,1287,1288,1289,1290,1291,1292,1293,1294,1295,1296,1297,1298,1299,1300,1301,1302,1303,1304,1305,1306,1307,1308,1309,1310,1311,1312,1313,1314,1315,1316,1317,1318,1319,1320,1321,1322,1323,1324,1325,1326,1327,1328,1329,1330,1331,1332,1333,1334,1335,1336,1337,1338,1339,1340,1341,1342,1343,1344,1345,1346,1347,1348,1349,1350,1351,1352,1353,1354,1355,1356,1357,1358,1359,1360,1361,1362,1363,1364,1365,1366,1367,1368,1369,1370,1371,1372,1373,1374,1375,1376,1377,1378,1379,1380,1381,1382,1383,1384,1385,1386,1387,1388,1389,1390,1391,1392,1393,1394,1395,1396,1397,1398,1399,1400,1401,1402,1403,1404,1405,1406,1407,1408,1409,1410,1411,1412,1413,1414,1415,1416,1417,1418,1419,1420,1421,1422,1423,1424,1425,1426,1427,1428,1429,1430,1431,1432,1433,1434,1435,1436,1437,1438,1439,1440,1441,1442,1443,1444,1445,1446,1447,1448,1449,1450,1451,1452,1453,1454,1455,1456,1457,1458,1459,1460,1461,1462,1463,1464,1465,1466,1467,1468,1469,1470,1471,1472,1473,1474,1475,1476,1477,1478,1479,1480,1481,1482,1483,1484,1485,1486,1487,1488,1489,1490,1491,1492,1493,1494,1495,1496,1497,1498,1499,1500],"tree_info":[0,0,0,0,0,0,0,0,0,0,0,0,0,0,0,0,0,0,0,0,0,0,0,0,0,0,0,0,0,0,0,0,0,0,0,0,0,0,0,0,0,0,0,0,0,0,0,0,0,0,0,0,0,0,0,0,0,0,0,0,0,0,0,0,0,0,0,0,0,0,0,0,0,0,0,0,0,0,0,0,0,0,0,0,0,0,0,0,0,0,0,0,0,0,0,0,0,0,0,0,0,0,0,0,0,0,0,0,0,0,0,0,0,0,0,0,0,0,0,0,0,0,0,0,0,0,0,0,0,0,0,0,0,0,0,0,0,0,0,0,0,0,0,0,0,0,0,0,0,0,0,0,0,0,0,0,0,0,0,0,0,0,0,0,0,0,0,0,0,0,0,0,0,0,0,0,0,0,0,0,0,0,0,0,0,0,0,0,0,0,0,0,0,0,0,0,0,0,0,0,0,0,0,0,0,0,0,0,0,0,0,0,0,0,0,0,0,0,0,0,0,0,0,0,0,0,0,0,0,0,0,0,0,0,0,0,0,0,0,0,0,0,0,0,0,0,0,0,0,0,0,0,0,0,0,0,0,0,0,0,0,0,0,0,0,0,0,0,0,0,0,0,0,0,0,0,0,0,0,0,0,0,0,0,0,0,0,0,0,0,0,0,0,0,0,0,0,0,0,0,0,0,0,0,0,0,0,0,0,0,0,0,0,0,0,0,0,0,0,0,0,0,0,0,0,0,0,0,0,0,0,0,0,0,0,0,0,0,0,0,0,0,0,0,0,0,0,0,0,0,0,0,0,0,0,0,0,0,0,0,0,0,0,0,0,0,0,0,0,0,0,0,0,0,0,0,0,0,0,0,0,0,0,0,0,0,0,0,0,0,0,0,0,0,0,0,0,0,0,0,0,0,0,0,0,0,0,0,0,0,0,0,0,0,0,0,0,0,0,0,0,0,0,0,0,0,0,0,0,0,0,0,0,0,0,0,0,0,0,0,0,0,0,0,0,0,0,0,0,0,0,0,0,0,0,0,0,0,0,0,0,0,0,0,0,0,0,0,0,0,0,0,0,0,0,0,0,0,0,0,0,0,0,0,0,0,0,0,0,0,0,0,0,0,0,0,0,0,0,0,0,0,0,0,0,0,0,0,0,0,0,0,0,0,0,0,0,0,0,0,0,0,0,0,0,0,0,0,0,0,0,0,0,0,0,0,0,0,0,0,0,0,0,0,0,0,0,0,0,0,0,0,0,0,0,0,0,0,0,0,0,0,0,0,0,0,0,0,0,0,0,0,0,0,0,0,0,0,0,0,0,0,0,0,0,0,0,0,0,0,0,0,0,0,0,0,0,0,0,0,0,0,0,0,0,0,0,0,0,0,0,0,0,0,0,0,0,0,0,0,0,0,0,0,0,0,0,0,0,0,0,0,0,0,0,0,0,0,0,0,0,0,0,0,0,0,0,0,0,0,0,0,0,0,0,0,0,0,0,0,0,0,0,0,0,0,0,0,0,0,0,0,0,0,0,0,0,0,0,0,0,0,0,0,0,0,0,0,0,0,0,0,0,0,0,0,0,0,0,0,0,0,0,0,0,0,0,0,0,0,0,0,0,0,0,0,0,0,0,0,0,0,0,0,0,0,0,0,0,0,0,0,0,0,0,0,0,0,0,0,0,0,0,0,0,0,0,0,0,0,0,0,0,0,0,0,0,0,0,0,0,0,0,0,0,0,0,0,0,0,0,0,0,0,0,0,0,0,0,0,0,0,0,0,0,0,0,0,0,0,0,0,0,0,0,0,0,0,0,0,0,0,0,0,0,0,0,0,0,0,0,0,0,0,0,0,0,0,0,0,0,0,0,0,0,0,0,0,0,0,0,0,0,0,0,0,0,0,0,0,0,0,0,0,0,0,0,0,0,0,0,0,0,0,0,0,0,0,0,0,0,0,0,0,0,0,0,0,0,0,0,0,0,0,0,0,0,0,0,0,0,0,0,0,0,0,0,0,0,0,0,0,0,0,0,0,0,0,0,0,0,0,0,0,0,0,0,0,0,0,0,0,0,0,0,0,0,0,0,0,0,0,0,0,0,0,0,0,0,0,0,0,0,0,0,0,0,0,0,0,0,0,0,0,0,0,0,0,0,0,0,0,0,0,0,0,0,0,0,0,0,0,0,0,0,0,0,0,0,0,0,0,0,0,0,0,0,0,0,0,0,0,0,0,0,0,0,0,0,0,0,0,0,0,0,0,0,0,0,0,0,0,0,0,0,0,0,0,0,0,0,0,0,0,0,0,0,0,0,0,0,0,0,0,0,0,0,0,0,0,0,0,0,0,0,0,0,0,0,0,0,0,0,0,0,0,0,0,0,0,0,0,0,0,0,0,0,0,0,0,0,0,0,0,0,0,0,0,0,0,0,0,0,0,0,0,0,0,0,0,0,0,0,0,0,0,0,0,0,0,0,0,0,0,0,0,0,0,0,0,0,0,0,0,0,0,0,0,0,0,0,0,0,0,0,0,0,0,0,0,0,0,0,0,0,0,0,0,0,0,0,0,0,0,0,0,0,0,0,0,0,0,0,0,0,0,0,0,0,0,0,0,0,0,0,0,0,0,0,0,0,0,0,0,0,0,0,0,0,0,0,0,0,0,0,0,0,0,0,0,0,0,0,0,0,0,0,0,0,0,0,0,0,0,0,0,0,0,0,0,0,0,0,0,0,0,0,0,0,0,0,0,0,0,0,0,0,0,0,0,0,0,0,0,0,0,0,0,0,0,0,0,0,0,0,0,0,0,0,0,0,0,0,0,0,0,0,0,0,0,0,0,0,0,0,0,0,0,0,0,0,0,0,0,0,0,0,0,0,0,0,0,0,0,0,0,0,0,0,0,0,0,0,0,0,0,0,0,0,0,0,0,0,0,0,0,0,0,0,0,0,0,0,0,0,0,0,0,0,0,0,0,0,0,0,0,0,0,0,0,0,0,0,0,0,0,0,0,0,0,0,0,0,0,0,0,0,0,0,0,0,0,0,0,0,0,0,0,0,0,0,0,0,0,0,0,0,0,0,0,0,0,0,0,0,0,0,0,0,0,0,0,0,0,0,0,0,0,0,0,0,0,0,0,0,0,0,0,0,0,0,0,0,0,0,0,0,0,0,0,0,0,0,0,0,0,0,0,0,0,0,0,0,0,0,0,0,0,0,0,0,0,0,0,0,0,0,0,0,0,0,0,0,0,0,0,0,0,0,0,0,0,0,0,0,0,0,0,0,0,0,0,0,0,0,0,0,0,0,0,0,0,0,0,0,0,0,0,0,0,0,0,0,0,0,0,0,0,0,0,0,0,0,0,0,0,0,0,0,0,0,0,0,0,0,0,0,0,0,0],"trees":[{"base_weights":[-1.1161846E-3,-4.9653724E-1,4.6258104E-1,-7.5532013E-1,-1.7406666E-1,1.4492147E-1,7.42836E-1,-8.602179E-1,-5.063613E-1,-3.0053338E-1,5.1013734E-2,6.5979384E-2,4.8606467E-1,5.058088E-1,8.490288E-1,-3.658094E-2,-2.3460343E-2,-2.88E-2,-1.3735955E-2,-1.4671341E-2,-4.919278E-3,-7.920434E-3,3.6110003E-3,-3.5003738E-3,4.8565813E-3,7.105263E-3,1.835294E-2,1.3702016E-2,3.0731706E-2,2.194508E-2,3.3734832E-2],"categories":[],"categories_nodes":[],"categories_segments":[],"categories_sizes":[],"default_left":[0,0,0,0,0,0,0,0,0,0,0,0,0,0,0,0,0,0,0,0,0,0,0,0,0,0,0,0,0,0,0],"id":0,"left_children":[1,3,5,7,9,11,13,15,17,19,21,23,25,27,29,-1,-1,-1,-1,-1,-1,-1,-1,-1,-1,-1,-1,-1,-1,-1,-1],"loss_changes":[2.2641733E3,3.975072E2,4.5312207E2,6.859338E1,6.043979E1,6.426463E1,6.764441E1,5.1240234E1,1.6852234E1,3.491046E1,1.6734676E1,3.4004135E1,1.39053955E1,2.0890472E1,5.959619E1,0E0,0E0,0E0,0E0,0E0,0E0,0E0,0E0,0E0,0E0,0E0,0E0,0E0,0E0,0E0,0E0],"parents":[2147483647,0,0,1,1,2,2,3,3,4,4,5,5,6,6,7,7,8,8,9,9,10,10,11,11,12,12,13,13,14,14],"right_children":[2,4,6,8,10,12,14,16,18,20,22,24,26,28,30,-1,-1,-1,-1,-1,-1,-1,-1,-1,-1,-1,-1,-1,-1,-1,-1],"split_conditions":[-0E0,-0E0,2.5E-2,-1.6E1,2E-1,6.1E1,1.7E1,-4.5E-1,-5E-1,-3.2E1,-1.4E1,-1.6666667E-1,-1.14285715E-1,5.6666666E-1,4E-1,-3.658094E-2,-2.3460343E-2,-2.88E-2,-1.3735955E-2,-1.4671341E-2,-4.919278E-3,-7.920434E-3,3.6110003E-3,-3.5003738E-3,4.8565813E-3,7.105263E-3,1.835294E-2,1.3702016E-2,3.0731706E-2,2.194508E-2,3.3734832E-2],"split_indices":[2,1,1,2,1,2,2,1,1,2,3,1,1,1,1,0,0,0,0,0,0,0,0,0,0,0,0,0,0,0,0],"split_type":[0,0,0,0,0,0,0,0,0,0,0,0,0,0,0,0,0,0,0,0,0,0,0,0,0,0,0,0,0,0,0],"sum_hessian":[9.854E3,4.764E3,5.09E3,2.64225E3,2.12175E3,2.3865E3,2.7035E3,1.85725E3,7.85E2,1.35825E3,7.635E2,1.939E3,4.475E2,8.3825E2,1.86525E3,3.295E2,1.52775E3,7.4E1,7.11E2,5.695E2,7.8875E2,1.3725E2,6.2625E2,6.675E2,1.2715E3,1.51E2,2.965E2,7.675E2,7.075E1,1.31E3,5.5525E2],"tree_param":{"num_deleted":"0","num_feature":"17","num_nodes":"31","size_leaf_vector":"1"}},{"base_weights":[-4.167129E-3,-4.5754385E-1,4.8211172E-1,-7.2499E-1,-1.5797088E-1,2.5295112E-1,8.214226E-1,-8.300193E-1,-4.893185E-1,-4.4934705E-1,-6.762533E-2,-4.4613086E-2,3.6485633E-1,6.4788973E-1,9.528373E-1,-3.584097E-2,-2.2468671E-2,-2.7511295E-2,-1.3312318E-2,-1.8302742E-2,-4.3215393E-3,-4.812739E-3,3.3240798E-3,1.1455085E-2,-4.183746E-3,6.6291457E-3,1.5771892E-2,3.0301457E-2,1.7892508E-2,2.7179506E-2,3.9924067E-2],"categories":[],"categories_nodes":[],"categories_segments":[],"categories_sizes":[],"default_left":[0,0,0,0,0,0,0,0,0,0,0,0,0,0,0,0,0,0,0,0,0,0,0,0,0,0,0,0,0,0,0],"id":1,"left_children":[1,3,5,7,9,11,13,15,17,19,21,23,25,27,29,-1,-1,-1,-1,-1,-1,-1,-1,-1,-1,-1,-1,-1,-1,-1,-1],"loss_changes":[2.1784802E3,4.0958398E2,3.7050513E2,6.645947E1,6.3496117E1,9.482326E1,4.320105E1,5.43031E1,1.5873962E1,2.7932602E1,3.053791E1,3.1561024E1,4.77789E1,1.4891541E1,1.8120178E1,0E0,0E0,0E0,0E0,0E0,0E0,0E0,0E0,0E0,0E0,0E0,0E0,0E0,0E0,0E0,0E0],"parents":[2147483647,0,0,1,1,2,2,3,3,4,4,5,5,6,6,7,7,8,8,9,9,10,10,11,11,12,12,13,13,14,14],"right_children":[2,4,6,8,10,12,14,16,18,20,22,24,26,28,30,-1,-1,-1,-1,-1,-1,-1,-1,-1,-1,-1,-1,-1,-1,-1,-1],"split_conditions":[1E0,-2.5E-2,1.6666667E-1,-1.6E1,-5E1,-1.6666667E-1,2.9E1,-4.5E-1,-5E-1,1.2857144E-1,2E-1,-1.4E1,3.1E1,-4.7E-2,5E0,-3.584097E-2,-2.2468671E-2,-2.7511295E-2,-1.3312318E-2,-1.8302742E-2,-4.3215393E-3,-4.812739E-3,3.3240798E-3,1.1455085E-2,-4.183746E-3,6.6291457E-3,1.5771892E-2,3.0301457E-2,1.7892508E-2,2.7179506E-2,3.9924067E-2],"split_indices":[2,1,1,2,2,1,2,1,1,1,1,3,2,12,11,0,0,0,0,0,0,0,0,0,0,0,0,0,0,0,0],"split_type":[0,0,0,0,0,0,0,0,0,0,0,0,0,0,0,0,0,0,0,0,0,0,0,0,0,0,0,0,0,0,0],"sum_hessian":[9.879184E3,5.112583E3,4.766601E3,2.7003784E3,2.4122043E3,2.8461443E3,1.9204568E3,1.8661769E3,8.342016E2,5.6997784E2,1.8422266E3,7.779963E2,2.0681482E3,8.301611E2,1.0902958E3,3.368873E2,1.5292896E3,7.8484955E1,7.557166E2,3.7272974E2,1.9724811E2,1.2119827E3,6.3024384E2,1.4099931E2,6.3699695E2,1.092971E3,9.751772E2,1.0098874E2,7.2917236E2,9.7306805E2,1.17227684E2],"tree_param":{"num_deleted":"0","num_feature":"17","num_nodes":"31","size_leaf_vector":"1"}},{"base_weights":[6.495909E-3,-4.6844095E-1,3.8221383E-1,-7.65398E-1,-2.9252756E-1,1.8782009E-1,7.0711094E-1,-8.3793783E-1,-3.8651907E-1,-4.879457E-1,-1.7941256E-1,6.980696E-2,3.5738793E-1,4.3704194E-1,8.146308E-1,-2.9269187E-2,-2.087074E-2,3.364501E-3,-1.2962513E-2,-3.0067902E-2,-1.37811955E-2,-6.543157E-3,1.9695621E-3,-3.5729993E-3,4.258438E-3,3.013084E-2,9.966379E-3,2.0126661E-2,1.1293191E-2,2.0422919E-2,2.969187E-2],"categories":[],"categories_nodes":[],"categories_segments":[],"categories_sizes":[],"default_left":[0,0,0,0,0,0,0,0,0,0,0,0,0,0,0,0,0,0,0,0,0,0,0,0,0,0,0,0,0,0,0],"id":2,"left_children":[1,3,5,7,9,11,13,15,17,19,21,23,25,27,29,-1,-1,-1,-1,-1,-1,-1,-1,-1,-1,-1,-1,-1,-1,-1,-1],"loss_changes":[1.760272E3,2.2738208E2,3.4771698E2,4.4206787E1,6.0430466E1,6.8958405E1,5.9502075E1,2.5941467E1,6.0065193E0,1.42812195E1,1.6471977E1,2.77341E1,2.270337E1,8.096596E0,3.3858765E1,0E0,0E0,0E0,0E0,0E0,0E0,0E0,0E0,0E0,0E0,0E0,0E0,0E0,0E0,0E0,0E0],"parents":[2147483647,0,0,1,1,2,2,3,3,4,4,5,5,6,6,7,7,8,8,9,9,10,10,11,11,12,12,13,13,14,14],"right_children":[2,4,6,8,10,12,14,16,18,20,22,24,26,28,30,-1,-1,-1,-1,-1,-1,-1,-1,-1,-1,-1,-1,-1,-1,-1,-1],"split_conditions":[-3.3333335E-2,-2.1428572E-1,2E-1,-3.3333335E-2,-1.6666667E-1,1E-1,1.2857144E-1,-3.3333334E-1,-1.59E2,-5E-1,2E-1,-7.1428575E-2,-5E0,-2E0,3.5E-1,-2.9269187E-2,-2.087074E-2,3.364501E-3,-1.2962513E-2,-3.0067902E-2,-1.37811955E-2,-6.543157E-3,1.9695621E-3,-3.5729993E-3,4.258438E-3,3.013084E-2,9.966379E-3,2.0126661E-2,1.1293191E-2,2.0422919E-2,2.969187E-2],"split_indices":[0,0,0,1,1,0,1,0,3,1,1,1,5,5,0,0,0,0,0,0,0,0,0,0,0,0,0,0,0,0,0],"split_type":[0,0,0,0,0,0,0,0,0,0,0,0,0,0,0,0,0,0,0,0,0,0,0,0,0,0,0,0,0,0,0],"sum_hessian":[9.862653E3,4.356036E3,5.506617E3,1.6192502E3,2.736786E3,3.4462322E3,2.0603853E3,1.3580312E3,2.6121902E2,1.00215063E3,1.7346353E3,2.0328517E3,1.4133804E3,5.881448E2,1.4722405E3,6.870619E2,6.709693E2,2.1747591E1,2.3947144E2,5.094997E1,9.512007E2,1.4981981E3,2.3643701E2,5.616017E2,1.47125E3,5.1481224E1,1.3618992E3,1.18976814E2,4.6916797E2,8.371255E2,6.35115E2],"tree_param":{"num_deleted":"0","num_feature":"17","num_nodes":"31","size_leaf_vector":"1"}},{"base_weights":[-5.763868E-3,-4.4058993E-1,4.6128997E-1,-7.4639815E-1,-1.1634525E-1,1.3220607E-1,7.6500463E-1,-1.0553329E0,-6.395374E-1,-1.9535439E-1,9.325887E-2,-7.707239E-2,2.1757983E-1,5.8311737E-1,9.478237E-1,-3.51704E-2,-1.9784823E-2,-2.3441853E-2,-1.4502609E-2,-1.1054522E-2,-2.9131481E-3,4.8961826E-3,-6.297102E-3,-4.396245E-3,6.695981E-3,3.2219714E-3,1.088759E-2,1.0056514E-2,2.0772668E-2,1.846432E-2,3.1688076E-2],"categories":[],"categories_nodes":[],"categories_segments":[],"categories_sizes":[],"default_left":[0,0,0,0,0,0,0,0,0,0,0,0,0,0,0,0,0,0,0,0,0,0,0,0,0,0,0,0,0,0,0],"id":3,"left_children":[1,3,5,7,9,11,13,15,17,19,21,23,25,27,29,-1,-1,-1,-1,-1,-1,-1,-1,-1,-1,-1,-1,-1,-1,-1,-1],"loss_changes":[1.9971373E3,5.048825E2,4.7377533E2,8.5840576E1,4.0972603E1,4.0696E1,8.142981E1,3.0351746E1,4.2800415E1,3.0519531E1,1.4404493E1,1.3808943E1,2.5860992E1,3.3326508E1,4.3608154E1,0E0,0E0,0E0,0E0,0E0,0E0,0E0,0E0,0E0,0E0,0E0,0E0,0E0,0E0,0E0,0E0],"parents":[2147483647,0,0,1,1,2,2,3,3,4,4,5,5,6,6,7,7,8,8,9,9,10,10,11,11,12,12,13,13,14,14],"right_children":[2,4,6,8,10,12,14,16,18,20,22,24,26,28,30,-1,-1,-1,-1,-1,-1,-1,-1,-1,-1,-1,-1,-1,-1,-1,-1],"split_conditions":[1E0,-5.7142857E-2,1E-1,-3.3333334E-1,2E-1,-1.6666667E-1,2.5E-1,-1.1E1,-2.9E1,-3.4E1,1.6E1,1.6E1,3.3E1,3.3333335E-2,1.5E1,-3.51704E-2,-1.9784823E-2,-2.3441853E-2,-1.4502609E-2,-1.1054522E-2,-2.9131481E-3,4.8961826E-3,-6.297102E-3,-4.396245E-3,6.695981E-3,3.2219714E-3,1.088759E-2,1.0056514E-2,2.0772668E-2,1.846432E-2,3.1688076E-2],"split_indices":[2,0,0,0,1,1,0,2,2,2,3,3,2,1,2,0,0,0,0,0,0,0,0,0,0,0,0,0,0,0,0],"split_type":[0,0,0,0,0,0,0,0,0,0,0,0,0,0,0,0,0,0,0,0,0,0,0,0,0,0,0,0,0,0,0],"sum_hessian":[9.831891E3,5.091641E3,4.7402495E3,2.6196458E3,2.4719954E3,2.2757942E3,2.4644556E3,6.709761E2,1.9486696E3,1.7953252E3,6.766701E2,6.594263E2,1.6163679E3,1.2374762E3,1.2269794E3,5.163705E2,1.5460564E2,1.0188623E3,9.2980725E2,6.489794E2,1.1463458E3,5.501892E2,1.2648092E2,5.359451E2,1.2348114E2,9.2037744E2,6.959905E2,3.799127E2,8.5756354E2,3.0350906E2,9.234703E2],"tree_param":{"num_deleted":"0","num_feature":"17","num_nodes":"31","size_leaf_vector":"1"}},{"base_weights":[2.4889498E-3,-4.5083046E-1,4.2673242E-1,-7.309754E-1,-1.4041887E-1,1.1587017E-1,7.397513E-1,-8.9725477E-1,-5.539813E-1,-2.4326408E-1,1.1480596E-1,-9.0791725E-2,1.9309485E-1,6.4227474E-1,1.0132881E0,-2.9512854E-2,-1.651702E-2,-2.3597961E-2,-1.350657E-2,-1.2522086E-2,-3.6468152E-3,1.4990888E-3,1.0409234E-2,-1.6701732E-2,-1.7623063E-3,2.6702995E-3,1.0963001E-2,1.6723996E-2,2.7570138E-2,2.0204369E-2,3.3401664E-2],"categories":[],"categories_nodes":[],"categories_segments":[],"categories_sizes":[],"default_left":[0,0,0,0,0,0,0,0,0,0,0,0,0,0,0,0,0,0,0,0,0,0,0,0,0,0,0,0,0,0,0],"id":4,"left_children":[1,3,5,7,9,11,13,15,17,19,21,23,25,27,29,-1,-1,-1,-1,-1,-1,-1,-1,-1,-1,-1,-1,-1,-1,-1,-1],"loss_changes":[1.8982208E3,4.1483728E2,4.9603986E2,7.330969E1,5.9474945E1,4.0862595E1,6.708264E1,3.8190063E1,2.9029999E1,3.416794E1,9.784654E0,1.0373325E1,3.339337E1,4.3506653E1,2.1893555E1,0E0,0E0,0E0,0E0,0E0,0E0,0E0,0E0,0E0,0E0,0E0,0E0,0E0,0E0,0E0,0E0],"parents":[2147483647,0,0,1,1,2,2,3,3,4,4,5,5,6,6,7,7,8,8,9,9,10,10,11,11,12,12,13,13,14,14],"right_children":[2,4,6,8,10,12,14,16,18,20,22,24,26,28,30,-1,-1,-1,-1,-1,-1,-1,-1,-1,-1,-1,-1,-1,-1,-1,-1],"split_conditions":[-0E0,-8.571429E-2,1E-1,-2.1428572E-1,2E-1,-1.6666667E-1,3.5E-1,-1E1,-5.9E1,-3.4E1,1.647929E-1,-5E-1,3.3E1,7.7E1,1.2E1,-2.9512854E-2,-1.651702E-2,-2.3597961E-2,-1.350657E-2,-1.2522086E-2,-3.6468152E-3,1.4990888E-3,1.0409234E-2,-1.6701732E-2,-1.7623063E-3,2.6702995E-3,1.0963001E-2,1.6723996E-2,2.7570138E-2,2.0204369E-2,3.3401664E-2],"split_indices":[2,0,0,0,1,1,0,2,2,2,14,1,2,2,2,0,0,0,0,0,0,0,0,0,0,0,0,0,0,0,0],"split_type":[0,0,0,0,0,0,0,0,0,0,0,0,0,0,0,0,0,0,0,0,0,0,0,0,0,0,0,0,0,0,0],"sum_hessian":[9.8682295E3,4.7706045E3,5.097625E3,2.506839E3,2.2637651E3,2.5583108E3,2.5393142E3,1.2904448E3,1.2163943E3,1.6135979E3,6.501673E2,6.958807E2,1.86243E3,1.8746273E3,6.6468695E2,1.0312778E3,2.59167E2,3.731885E2,8.432059E2,6.6280206E2,9.5079584E2,5.0918536E2,1.4098195E2,4.3730656E1,6.5214996E2,1.1620935E3,7.003366E2,1.437192E3,4.374354E2,1.5300691E2,5.1168005E2],"tree_param":{"num_deleted":"0","num_feature":"17","num_nodes":"31","size_leaf_vector":"1"}},{"base_weights":[-7.6872687E-4,-4.0701452E-1,4.3259758E-1,-7.007807E-1,-1.1374323E-1,1.3864735E-1,7.039982E-1,-8.792811E-1,-5.133201E-1,-1.8691659E-1,8.158E-2,-8.2773514E-2,2.2983003E-1,5.17602E-1,8.785412E-1,-2.9778384E-2,-1.7267711E-2,-1.8581582E-2,-8.38455E-3,-1.0148996E-2,-3.0388276E-3,-8.781201E-3,4.751261E-3,2.9961161E-2,-3.0581504E-3,3.7468553E-3,1.1106366E-2,8.044708E-3,1.8982178E-2,1.3144312E-2,2.8383516E-2],"categories":[],"categories_nodes":[],"categories_segments":[],"categories_sizes":[],"default_left":[0,0,0,0,0,0,0,0,0,0,0,0,0,0,0,0,0,0,0,0,0,0,0,0,0,0,0,0,0,0,0],"id":5,"left_children":[1,3,5,7,9,11,13,15,17,19,21,23,25,27,29,-1,-1,-1,-1,-1,-1,-1,-1,-1,-1,-1,-1,-1,-1,-1,-1],"loss_changes":[1.7365454E3,4.3854175E2,3.8064996E2,8.465039E1,3.6445724E1,4.6301018E1,8.026953E1,4.4218445E1,3.0653076E1,2.4004333E1,2.0033314E1,1.3975754E1,2.3876373E1,3.4360992E1,3.767621E1,0E0,0E0,0E0,0E0,0E0,0E0,0E0,0E0,0E0,0E0,0E0,0E0,0E0,0E0,0E0,0E0],"parents":[2147483647,0,0,1,1,2,2,3,3,4,4,5,5,6,6,7,7,8,8,9,9,10,10,11,11,12,12,13,13,14,14],"right_children":[2,4,6,8,10,12,14,16,18,20,22,24,26,28,30,-1,-1,-1,-1,-1,-1,-1,-1,-1,-1,-1,-1,-1,-1,-1,-1],"split_conditions":[1E0,-8.571429E-2,1E-1,-2.1428572E-1,2E-1,-1.6666667E-1,2.1428572E-1,-1.4E1,-0E0,-3.4E1,-1.4E1,-3.26E2,3.3E1,3.3333335E-2,7E0,-2.9778384E-2,-1.7267711E-2,-1.8581582E-2,-8.38455E-3,-1.0148996E-2,-3.0388276E-3,-8.781201E-3,4.751261E-3,2.9961161E-2,-3.0581504E-3,3.7468553E-3,1.1106366E-2,8.044708E-3,1.8982178E-2,1.3144312E-2,2.8383516E-2],"split_indices":[2,0,0,0,1,1,0,2,1,2,3,3,2,1,2,0,0,0,0,0,0,0,0,0,0,0,0,0,0,0,0],"split_type":[0,0,0,0,0,0,0,0,0,0,0,0,0,0,0,0,0,0,0,0,0,0,0,0,0,0,0,0,0,0,0],"sum_hessian":[9.861752E3,5.090181E3,4.7715713E3,2.5422507E3,2.5479302E3,2.2913516E3,2.4802197E3,1.3003573E3,1.2418934E3,1.8535742E3,6.94356E2,6.683864E2,1.6229651E3,1.2013022E3,1.2789176E3,9.453149E2,3.550424E2,8.532267E2,3.886667E2,6.6856934E2,1.1850049E3,1.1773338E2,5.766227E2,1.0748234E1,6.576382E2,9.2982E2,6.931451E2,3.804295E2,8.208727E2,1.7113083E2,1.1077867E3],"tree_param":{"num_deleted":"0","num_feature":"17","num_nodes":"31","size_leaf_vector":"1"}},{"base_weights":[9.254884E-3,-3.9044926E-1,4.379789E-1,-6.73518E-1,-9.080021E-2,1.4749837E-1,7.0612395E-1,-8.037274E-1,-4.5761743E-1,-1.6602834E-1,1.0554736E-1,-5.264926E-2,2.2961184E-1,6.0626346E-1,9.88965E-1,-3.2401644E-2,-2.1213742E-2,-2.112881E-2,-1.1070824E-2,-1.0359048E-2,-2.0297056E-3,-5.0187246E-3,4.6209525E-3,-1.2127481E-3,-3.4555517E-2,4.234418E-3,1.0679244E-2,1.568355E-2,2.5902785E-2,1.9209925E-2,3.3049036E-2],"categories":[],"categories_nodes":[],"categories_segments":[],"categories_sizes":[],"default_left":[0,0,0,0,0,0,0,0,0,0,0,0,0,0,0,0,0,0,0,0,0,0,0,0,0,0,0,0,0,0,0],"id":6,"left_children":[1,3,5,7,9,11,13,15,17,19,21,23,25,27,29,-1,-1,-1,-1,-1,-1,-1,-1,-1,-1,-1,-1,-1,-1,-1,-1],"loss_changes":[1.6816761E3,4.307182E2,3.686997E2,7.304553E1,3.6475517E1,3.7385628E1,6.8934204E1,4.268506E1,2.1260193E1,3.1454185E1,9.078331E0,8.853606E0,1.7977364E1,3.8663208E1,2.4465271E1,0E0,0E0,0E0,0E0,0E0,0E0,0E0,0E0,0E0,0E0,0E0,0E0,0E0,0E0,0E0,0E0],"parents":[2147483647,0,0,1,1,2,2,3,3,4,4,5,5,6,6,7,7,8,8,9,9,10,10,11,11,12,12,13,13,14,14],"right_children":[2,4,6,8,10,12,14,16,18,20,22,24,26,28,30,-1,-1,-1,-1,-1,-1,-1,-1,-1,-1,-1,-1,-1,-1,-1,-1],"split_conditions":[1E0,-5.7142857E-2,1E-1,-1.14285715E-1,2E-1,-1.6666667E-1,3.5E-1,-3.857143E-1,-6.6E1,-3.4E1,-6.2E1,6.7E-1,3.5E1,7.7E1,1.5E1,-3.2401644E-2,-2.1213742E-2,-2.112881E-2,-1.1070824E-2,-1.0359048E-2,-2.0297056E-3,-5.0187246E-3,4.6209525E-3,-1.2127481E-3,-3.4555517E-2,4.234418E-3,1.0679244E-2,1.568355E-2,2.5902785E-2,1.9209925E-2,3.3049036E-2],"split_indices":[2,0,0,1,1,1,0,0,2,2,2,14,2,2,2,0,0,0,0,0,0,0,0,0,0,0,0,0,0,0,0],"split_type":[0,0,0,0,0,0,0,0,0,0,0,0,0,0,0,0,0,0,0,0,0,0,0,0,0,0,0,0,0,0,0],"sum_hessian":[9.811547E3,5.0776694E3,4.733878E3,2.6104314E3,2.4672378E3,2.2730461E3,2.460832E3,1.6266675E3,9.83764E2,1.7839095E3,6.833282E2,6.6136346E2,1.6116827E3,1.8210361E3,6.397958E2,4.1872977E2,1.2079377E3,2.58111E2,7.2565295E2,6.3116223E2,1.1527473E3,1.0273771E2,5.805905E2,6.551146E2,6.2488146E0,9.4924756E2,6.624352E2,1.3770577E3,4.4397842E2,1.5789703E2,4.8189877E2],"tree_param":{"num_deleted":"0","num_feature":"17","num_nodes":"31","size_leaf_vector":"1"}},{"base_weights":[-5.138235E-4,-4.127529E-1,3.8367066E-1,-6.661057E-1,-1.17713846E-1,1.00197315E-1,6.7131984E-1,-7.9846007E-1,-4.4763348E-1,-2.0368528E-1,8.6455055E-2,-1.1255208E-1,1.803135E-1,5.740639E-1,9.470851E-1,-2.6639491E-2,-1.7513806E-2,-2.2437077E-2,-1.0964779E-2,-1.0423411E-2,-3.1691901E-3,2.1915291E-3,3.3706803E-2,-2.831773E-2,-2.894825E-3,2.616198E-3,1.0347346E-2,1.2903663E-2,2.1190919E-2,1.8019153E-2,3.1301793E-2],"categories":[],"categories_nodes":[],"categories_segments":[],"categories_sizes":[],"default_left":[0,0,0,0,0,0,0,0,0,0,0,0,0,0,0,0,0,0,0,0,0,0,0,0,0,0,0,0,0,0,0],"id":7,"left_children":[1,3,5,7,9,11,13,15,17,19,21,23,25,27,29,-1,-1,-1,-1,-1,-1,-1,-1,-1,-1,-1,-1,-1,-1,-1,-1],"loss_changes":[1.5607728E3,3.552677E2,4.158733E2,7.3591675E1,3.8588974E1,4.3830666E1,6.735535E1,3.0062744E1,2.357933E1,2.1763374E1,8.979317E0,9.304094E0,2.8590881E1,3.5386475E1,2.1345642E1,0E0,0E0,0E0,0E0,0E0,0E0,0E0,0E0,0E0,0E0,0E0,0E0,0E0,0E0,0E0,0E0],"parents":[2147483647,0,0,1,1,2,2,3,3,4,4,5,5,6,6,7,7,8,8,9,9,10,10,11,11,12,12,13,13,14,14],"right_children":[2,4,6,8,10,12,14,16,18,20,22,24,26,28,30,-1,-1,-1,-1,-1,-1,-1,-1,-1,-1,-1,-1,-1,-1,-1,-1],"split_conditions":[-0E0,-5.7142857E-2,1E-1,-1.14285715E-1,2E-1,-1.6666667E-1,3.5E-1,-1.6E1,-7.9E1,-3.5E1,6.7E-1,-7.5E-1,3.5E1,3.2E1,1.1E1,-2.6639491E-2,-1.7513806E-2,-2.2437077E-2,-1.0964779E-2,-1.0423411E-2,-3.1691901E-3,2.1915291E-3,3.3706803E-2,-2.831773E-2,-2.894825E-3,2.616198E-3,1.0347346E-2,1.2903663E-2,2.1190919E-2,1.8019153E-2,3.1301793E-2],"split_indices":[2,0,0,1,1,1,0,2,2,2,14,1,2,2,2,0,0,0,0,0,0,0,0,0,0,0,0,0,0,0,0],"split_type":[0,0,0,0,0,0,0,0,0,0,0,0,0,0,0,0,0,0,0,0,0,0,0,0,0,0,0,0,0,0,0],"sum_hessian":[9.852866E3,4.75286E3,5.100006E3,2.5563987E3,2.1964612E3,2.569327E3,2.530679E3,1.5903074E3,9.660914E2,1.5456298E3,6.508314E2,7.027533E2,1.8665737E3,1.8731458E3,6.575333E2,1.1200662E3,4.7024118E2,2.0577338E2,7.60318E2,6.256749E2,9.1995483E2,6.4358386E2,7.247573E0,1.2221515E1,6.9053174E2,1.1931715E3,6.734022E2,8.991388E2,9.7400696E2,1.4460081E2,5.129325E2],"tree_param":{"num_deleted":"0","num_feature":"17","num_nodes":"31","size_leaf_vector":"1"}},{"base_weights":[3.4972446E-3,-3.95726E-1,3.7694457E-1,-6.909445E-1,-1.958833E-1,1.9057278E-1,6.76259E-1,-7.813906E-1,-4.748127E-1,-3.3773884E-1,-3.33146E-2,1.1814241E-1,4.9905163E-1,4.5629445E-1,7.7529E-1,-2.1310143E-2,-3.134025E-2,-1.54007785E-2,7.0354977E-4,-1.8796919E-2,-8.110367E-3,-8.233535E-3,7.8677834E-4,-2.1250104E-3,5.7048555E-3,6.2760543E-3,1.7469825E-2,1.9259572E-2,1.1130693E-2,2.096944E-2,3.1244949E-2],"categories":[],"categories_nodes":[],"categories_segments":[],"categories_sizes":[],"default_left":[0,0,0,0,0,0,0,0,0,0,0,0,0,0,0,0,0,0,0,0,0,0,0,0,0,0,0,0,0,0,0],"id":8,"left_children":[1,3,5,7,9,11,13,15,17,19,21,23,25,27,29,-1,-1,-1,-1,-1,-1,-1,-1,-1,-1,-1,-1,-1,-1,-1,-1],"loss_changes":[1.4679419E3,2.8062195E2,2.8365814E2,3.7173523E1,6.546449E1,7.002127E1,4.216156E1,2.4558167E1,1.0943634E1,2.9341003E1,1.9018167E1,3.4602135E1,1.4266663E1,9.394363E0,2.6582092E1,0E0,0E0,0E0,0E0,0E0,0E0,0E0,0E0,0E0,0E0,0E0,0E0,0E0,0E0,0E0,0E0],"parents":[2147483647,0,0,1,1,2,2,3,3,4,4,5,5,6,6,7,7,8,8,9,9,10,10,11,11,12,12,13,13,14,14],"right_children":[2,4,6,8,10,12,14,16,18,20,22,24,26,28,30,-1,-1,-1,-1,-1,-1,-1,-1,-1,-1,-1,-1,-1,-1,-1,-1],"split_conditions":[-0E0,-1.5E-1,1.6666667E-1,-1.6E1,1E-1,6.6E1,1.7E1,3.5E-2,9.9E-2,-7.7E1,-6.2E1,-1.6666667E-1,-1.14285715E-1,-1.9E-2,1E0,-2.1310143E-2,-3.134025E-2,-1.54007785E-2,7.0354977E-4,-1.8796919E-2,-8.110367E-3,-8.233535E-3,7.8677834E-4,-2.1250104E-3,5.7048555E-3,6.2760543E-3,1.7469825E-2,1.9259572E-2,1.1130693E-2,2.096944E-2,3.1244949E-2],"split_indices":[2,1,1,2,1,2,2,12,15,2,2,1,1,12,9,0,0,0,0,0,0,0,0,0,0,0,0,0,0,0,0],"split_type":[0,0,0,0,0,0,0,0,0,0,0,0,0,0,0,0,0,0,0,0,0,0,0,0,0,0,0,0,0,0,0],"sum_hessian":[9.844086E3,4.7578174E3,5.086269E3,1.919609E3,2.8382085E3,3.1355295E3,1.9507393E3,1.3514454E3,5.681635E2,1.5150853E3,1.3231232E3,2.5404246E3,5.95105E2,6.0734076E2,1.3433984E3,1.0671516E3,2.8429382E2,5.2733746E2,4.082604E1,2.850705E2,1.2300148E3,2.6129214E2,1.061831E3,7.010125E2,1.839412E3,1.3360211E2,4.6150287E2,1.8907419E2,4.182666E2,1.0469233E3,2.964752E2],"tree_param":{"num_deleted":"0","num_feature":"17","num_nodes":"31","size_leaf_vector":"1"}},{"base_weights":[4.5315758E-4,-3.8887072E-1,3.652588E-1,-6.962859E-1,-1.6173398E-1,9.456099E-2,6.402754E-1,-8.055588E-1,-4.94422E-1,-3.487787E-1,-5.5818476E-2,7.166433E-2,7.0543987E-1,5.466039E-1,9.03659E-1,-2.6231498E-2,-1.5465979E-2,-2.0492522E-2,-1.1772267E-2,-2.8495466E-2,-9.744367E-3,-9.6510025E-3,-2.9515004E-4,-3.4268463E-3,4.246409E-3,3.316054E-2,1.1954724E-2,1.0083052E-2,1.8630093E-2,1.3420321E-2,2.9408759E-2],"categories":[],"categories_nodes":[],"categories_segments":[],"categories_sizes":[],"default_left":[0,0,0,0,0,0,0,0,0,0,0,0,0,0,0,0,0,0,0,0,0,0,0,0,0,0,0,0,0,0,0],"id":9,"left_children":[1,3,5,7,9,11,13,15,17,19,21,23,25,27,29,-1,-1,-1,-1,-1,-1,-1,-1,-1,-1,-1,-1,-1,-1,-1,-1],"loss_changes":[1.393605E3,3.3132013E2,3.770562E2,4.4083862E1,5.4084663E1,3.5672813E1,6.1495483E1,2.56333E1,1.3412445E1,1.3912186E1,2.1328129E1,3.2010445E1,1.0872047E1,2.8857727E1,2.2558044E1,0E0,0E0,0E0,0E0,0E0,0E0,0E0,0E0,0E0,0E0,0E0,0E0,0E0,0E0,0E0,0E0],"parents":[2147483647,0,0,1,1,2,2,3,3,4,4,5,5,6,6,7,7,8,8,9,9,10,10,11,11,12,12,13,13,14,14],"right_children":[2,4,6,8,10,12,14,16,18,20,22,24,26,28,30,-1,-1,-1,-1,-1,-1,-1,-1,-1,-1,-1,-1,-1,-1,-1,-1],"split_conditions":[-0E0,-1.4035088E-1,1E-1,-1.6666667E-1,-0E0,1.12E2,3.5E-1,-1E1,-5.3E1,-5E0,-7.3E1,-1.6666667E-1,-7E-3,3.3333335E-2,7E0,-2.6231498E-2,-1.5465979E-2,-2.0492522E-2,-1.1772267E-2,-2.8495466E-2,-9.744367E-3,-9.6510025E-3,-2.9515004E-4,-3.4268463E-3,4.246409E-3,3.316054E-2,1.1954724E-2,1.0083052E-2,1.8630093E-2,1.3420321E-2,2.9408759E-2],"split_indices":[2,0,0,1,0,3,0,2,2,5,2,1,12,1,2,0,0,0,0,0,0,0,0,0,0,0,0,0,0,0,0],"split_type":[0,0,0,0,0,0,0,0,0,0,0,0,0,0,0,0,0,0,0,0,0,0,0,0,0,0,0,0,0,0,0],"sum_hessian":[9.810216E3,4.7456016E3,5.0646143E3,2.0155781E3,2.7300234E3,2.553025E3,2.5115894E3,1.3057562E3,7.098219E2,9.861713E2,1.743852E3,2.4618677E3,9.115719E1,1.854956E3,6.5663336E2,1.053695E3,2.5206133E2,2.4711446E2,4.6270743E2,3.6332516E1,9.4983887E2,2.562252E2,1.4876268E3,6.7245557E2,1.789412E3,3.845484E1,5.270235E1,4.8584418E2,1.3691119E3,9.540096E1,5.612324E2],"tree_param":{"num_deleted":"0","num_feature":"17","num_nodes":"31","size_leaf_vector":"1"}},{"base_weights":[-7.3565175E-3,-3.586637E-1,3.7017807E-1,-6.22443E-1,-9.488058E-2,9.316336E-2,6.2523675E-1,-7.769045E-1,-4.5834917E-1,-2.1607688E-1,9.034538E-3,-4.8092615E-2,2.1972267E-1,4.2829975E-1,7.5727934E-1,-2.6431201E-2,-1.5142019E-2,-1.8530088E-2,-1.0353175E-2,-1.0149559E-2,-3.2015764E-3,1.404551E-3,-1.5014902E-2,-2.19266E-3,1.7378878E-2,4.008917E-3,1.0878432E-2,1.018494E-2,2.0317962E-2,1.502046E-2,2.5277033E-2],"categories":[],"categories_nodes":[],"categories_segments":[],"categories_sizes":[],"default_left":[0,0,0,0,0,0,0,0,0,0,0,0,0,0,0,0,0,0,0,0,0,0,0,0,0,0,0,0,0,0,0],"id":10,"left_children":[1,3,5,7,9,11,13,15,17,19,21,23,25,27,29,-1,-1,-1,-1,-1,-1,-1,-1,-1,-1,-1,-1,-1,-1,-1,-1],"loss_changes":[1.301805E3,3.5370404E2,3.3421356E2,6.407269E1,3.2032265E1,4.0575558E1,6.3722595E1,3.6626526E1,2.206836E1,1.5658783E1,2.6402906E1,1.687099E1,1.4676609E1,2.167659E1,3.1816467E1,0E0,0E0,0E0,0E0,0E0,0E0,0E0,0E0,0E0,0E0,0E0,0E0,0E0,0E0,0E0,0E0],"parents":[2147483647,0,0,1,1,2,2,3,3,4,4,5,5,6,6,7,7,8,8,9,9,10,10,11,11,12,12,13,13,14,14],"right_children":[2,4,6,8,10,12,14,16,18,20,22,24,26,28,30,-1,-1,-1,-1,-1,-1,-1,-1,-1,-1,-1,-1,-1,-1,-1,-1],"split_conditions":[1E0,-8.571429E-2,1E-1,-2E-1,4.4444446E-2,-7.1428575E-2,2E-1,-1.4E1,-4.2E1,-2E1,5.6E1,1.26E2,4E1,6.9E1,1.5E1,-2.6431201E-2,-1.5142019E-2,-1.8530088E-2,-1.0353175E-2,-1.0149559E-2,-3.2015764E-3,1.404551E-3,-1.5014902E-2,-2.19266E-3,1.7378878E-2,4.008917E-3,1.0878432E-2,1.018494E-2,2.0317962E-2,1.502046E-2,2.5277033E-2],"split_indices":[2,0,0,0,0,1,1,2,2,2,3,3,2,2,2,0,0,0,0,0,0,0,0,0,0,0,0,0,0,0,0],"split_type":[0,0,0,0,0,0,0,0,0,0,0,0,0,0,0,0,0,0,0,0,0,0,0,0,0,0,0,0,0,0,0],"sum_hessian":[9.813268E3,5.083225E3,4.7300425E3,2.5409512E3,2.542274E3,2.268083E3,2.4619595E3,1.3069678E3,1.2339833E3,1.173057E3,1.3692168E3,1.0721027E3,1.1959802E3,9.898606E2,1.4720989E3,9.436714E2,3.632964E2,5.108382E2,7.231451E2,5.529107E2,6.2014624E2,1.2755386E3,9.367828E1,1.0318748E3,4.0227856E1,7.4752966E2,4.484506E2,7.3136053E2,2.5850003E2,3.6895065E2,1.1031483E3],"tree_param":{"num_deleted":"0","num_feature":"17","num_nodes":"31","size_leaf_vector":"1"}},{"base_weights":[-8.649752E-3,-3.473954E-1,3.561479E-1,-6.108884E-1,-8.394428E-2,9.453659E-2,6.008719E-1,-8.778311E-1,-5.1671684E-1,-1.8612738E-1,4.7221057E-2,-7.806209E-2,1.7404506E-1,5.0764245E-1,8.726001E-1,-2.928526E-2,-1.7923636E-2,-2.1244533E-2,-1.2527114E-2,-1.0310187E-2,-2.8745388E-3,2.2313339E-3,-1.8597515E-2,7.204535E-3,-4.50265E-3,4.536381E-3,2.4511784E-2,1.2437133E-2,2.0479186E-2,6.846176E-3,2.771306E-2],"categories":[],"categories_nodes":[],"categories_segments":[],"categories_sizes":[],"default_left":[0,0,0,0,0,0,0,0,0,0,0,0,0,0,0,0,0,0,0,0,0,0,0,0,0,0,0,0,0,0,0],"id":11,"left_children":[1,3,5,7,9,11,13,15,17,19,21,23,25,27,29,-1,-1,-1,-1,-1,-1,-1,-1,-1,-1,-1,-1,-1,-1,-1,-1],"loss_changes":[1.2053911E3,3.510492E2,3.0063342E2,6.3110046E1,3.3921623E1,3.118112E1,6.102649E1,1.7559082E1,3.52269E1,2.0205692E1,2.0134542E1,1.6468685E1,2.2709389E1,2.9180511E1,2.0181244E1,0E0,0E0,0E0,0E0,0E0,0E0,0E0,0E0,0E0,0E0,0E0,0E0,0E0,0E0,0E0,0E0],"parents":[2147483647,0,0,1,1,2,2,3,3,4,4,5,5,6,6,7,7,8,8,9,9,10,10,11,11,12,12,13,13,14,14],"right_children":[2,4,6,8,10,12,14,16,18,20,22,24,26,28,30,-1,-1,-1,-1,-1,-1,-1,-1,-1,-1,-1,-1,-1,-1,-1,-1],"split_conditions":[1E0,-8.571429E-2,1E-1,-3.3333334E-1,1E-1,-1.2857144E-1,3.5E-1,-1.4E1,-5.5E1,-3.2E1,1.26E2,-1.4E1,1.12E2,5.6E1,4E0,-2.928526E-2,-1.7923636E-2,-2.1244533E-2,-1.2527114E-2,-1.0310187E-2,-2.8745388E-3,2.2313339E-3,-1.8597515E-2,7.204535E-3,-4.50265E-3,4.536381E-3,2.4511784E-2,1.2437133E-2,2.0479186E-2,6.846176E-3,2.771306E-2],"split_indices":[2,0,0,0,1,1,0,2,2,2,3,3,3,2,2,0,0,0,0,0,0,0,0,0,0,0,0,0,0,0,0],"split_type":[0,0,0,0,0,0,0,0,0,0,0,0,0,0,0,0,0,0,0,0,0,0,0,0,0,0,0,0,0,0,0],"sum_hessian":[9.752437E3,5.0568076E3,4.695629E3,2.5275437E3,2.5292642E3,2.2701804E3,2.4254485E3,6.569642E2,1.8705795E3,1.4214658E3,1.1077985E3,7.159655E2,1.5542148E3,1.8079962E3,6.174523E2,4.845299E2,1.7243425E2,6.361475E2,1.234432E3,5.1690875E2,9.0455707E2,1.0653217E3,4.2476803E1,1.3171446E2,5.8425104E2,1.5021124E3,5.2102306E1,1.182473E3,6.2552325E2,4.5824085E1,5.716282E2],"tree_param":{"num_deleted":"0","num_feature":"17","num_nodes":"31","size_leaf_vector":"1"}},{"base_weights":[6.5048463E-3,-3.1969073E-1,3.557442E-1,-5.708642E-1,-7.0944004E-2,1.09563515E-1,5.8377784E-1,-8.4025925E-1,-4.7565827E-1,-1.416322E-1,1.1703597E-1,2.8524632E-3,2.531747E-1,4.2542553E-1,7.3239636E-1,-2.7087737E-2,-1.02012735E-2,-2.2046471E-2,-1.1949108E-2,-7.702461E-3,-2.268189E-3,2.1242562E-3,1.0591675E-2,-5.586082E-4,3.0409312E-2,1.854009E-2,6.816383E-3,9.722186E-3,1.8740527E-2,1.4858819E-2,2.5358595E-2],"categories":[],"categories_nodes":[],"categories_segments":[],"categories_sizes":[],"default_left":[0,0,0,0,0,0,0,0,0,0,0,0,0,0,0,0,0,0,0,0,0,0,0,0,0,0,0,0,0,0,0],"id":12,"left_children":[1,3,5,7,9,11,13,15,17,19,21,23,25,27,29,-1,-1,-1,-1,-1,-1,-1,-1,-1,-1,-1,-1,-1,-1,-1,-1],"loss_changes":[1.1149259E3,3.161266E2,2.6526917E2,6.417627E1,3.3816204E1,3.48487E1,5.74281E1,2.0260742E1,3.705716E1,1.4033947E1,7.5651035E0,2.8357069E1,9.041386E0,2.3834366E1,3.3420532E1,0E0,0E0,0E0,0E0,0E0,0E0,0E0,0E0,0E0,0E0,0E0,0E0,0E0,0E0,0E0,0E0],"parents":[2147483647,0,0,1,1,2,2,3,3,4,4,5,5,6,6,7,7,8,8,9,9,10,10,11,11,12,12,13,13,14,14],"right_children":[2,4,6,8,10,12,14,16,18,20,22,24,26,28,30,-1,-1,-1,-1,-1,-1,-1,-1,-1,-1,-1,-1,-1,-1,-1,-1],"split_conditions":[1E0,-8.571429E-2,1E-1,-3.3333334E-1,2E-1,-4.4444446E-2,2.1428572E-1,-4E0,-7.7E1,-3.3E1,2.2E-1,1.45E2,-4E0,5.5E1,2E1,-2.7087737E-2,-1.02012735E-2,-2.2046471E-2,-1.1949108E-2,-7.702461E-3,-2.268189E-3,2.1242562E-3,1.0591675E-2,-5.586082E-4,3.0409312E-2,1.854009E-2,6.816383E-3,9.722186E-3,1.8740527E-2,1.4858819E-2,2.5358595E-2],"split_indices":[2,0,0,0,1,0,0,2,2,2,14,2,5,2,2,0,0,0,0,0,0,0,0,0,0,0,0,0,0,0,0],"split_type":[0,0,0,0,0,0,0,0,0,0,0,0,0,0,0,0,0,0,0,0,0,0,0,0,0,0,0,0,0,0,0],"sum_hessian":[9.784894E3,5.059406E3,4.725488E3,2.5167786E3,2.542627E3,2.273039E3,2.4524485E3,6.5514703E2,1.8616316E3,1.8479633E3,6.946636E2,1.3046395E3,9.683995E2,1.1892118E3,1.2632367E3,5.8149445E2,7.365259E1,4.2589844E2,1.4357332E3,6.7252454E2,1.1754388E3,5.819763E2,1.12687294E2,1.2784622E3,2.6177422E1,6.282006E1,9.055794E2,7.900039E2,3.9920795E2,4.0919485E2,8.540419E2],"tree_param":{"num_deleted":"0","num_feature":"17","num_nodes":"31","size_leaf_vector":"1"}},{"base_weights":[-1.4223559E-2,-3.5933092E-1,3.0726093E-1,-6.219287E-1,-1.5501027E-1,6.707829E-2,5.541066E-1,-7.1283543E-1,-3.804828E-1,-2.7885062E-1,-2.6790462E-2,2.7598426E-2,3.409071E-1,4.6846166E-1,7.978658E-1,-2.4703221E-2,-1.4689047E-2,-8.6942725E-3,-1.9895999E-2,-6.5038376E-3,-1.3252358E-2,3.420561E-4,-1.5223793E-2,-1.8818469E-3,4.001583E-3,6.4324215E-3,1.8759448E-2,7.630946E-3,1.6339593E-2,1.636435E-2,2.7572023E-2],"categories":[],"categories_nodes":[],"categories_segments":[],"categories_sizes":[],"default_left":[0,0,0,0,0,0,0,0,0,0,0,0,0,0,0,0,0,0,0,0,0,0,0,0,0,0,0,0,0,0,0],"id":13,"left_children":[1,3,5,7,9,11,13,15,17,19,21,23,25,27,29,-1,-1,-1,-1,-1,-1,-1,-1,-1,-1,-1,-1,-1,-1,-1,-1],"loss_changes":[1.0829545E3,2.5248279E2,2.9957492E2,4.49364E1,4.2053562E1,2.7692598E1,5.1651978E1,3.650769E1,1.4304741E1,1.3524017E1,2.3917587E1,2.1418789E1,1.14790535E1,2.9982727E1,1.9275208E1,0E0,0E0,0E0,0E0,0E0,0E0,0E0,0E0,0E0,0E0,0E0,0E0,0E0,0E0,0E0,0E0],"parents":[2147483647,0,0,1,1,2,2,3,3,4,4,5,5,6,6,7,7,8,8,9,9,10,10,11,11,12,12,13,13,14,14],"right_children":[2,4,6,8,10,12,14,16,18,20,22,24,26,28,30,-1,-1,-1,-1,-1,-1,-1,-1,-1,-1,-1,-1,-1,-1,-1,-1],"split_conditions":[-0E0,-1.1363637E-1,1E-1,-1.4E1,5E-2,7.9E1,3.5E-1,-1.5E-1,1E0,2E0,4.6E1,-4.4444446E-2,1E0,2.5E-2,2E1,-2.4703221E-2,-1.4689047E-2,-8.6942725E-3,-1.9895999E-2,-6.5038376E-3,-1.3252358E-2,3.420561E-4,-1.5223793E-2,-1.8818469E-3,4.001583E-3,6.4324215E-3,1.8759448E-2,7.630946E-3,1.6339593E-2,1.636435E-2,2.7572023E-2],"split_indices":[2,0,0,2,0,2,0,1,9,3,3,0,3,1,2,0,0,0,0,0,0,0,0,0,0,0,0,0,0,0,0],"split_type":[0,0,0,0,0,0,0,0,0,0,0,0,0,0,0,0,0,0,0,0,0,0,0,0,0,0,0,0,0,0,0],"sum_hessian":[9.759042E3,4.7065425E3,5.0524995E3,2.05866E3,2.6478823E3,2.561456E3,2.4910437E3,1.4941467E3,5.645132E2,1.3463466E3,1.3015359E3,2.2396504E3,3.218057E2,1.8455354E3,6.4550824E2,9.972686E2,4.9687817E2,4.2896094E2,1.3555228E2,9.766244E2,3.697221E2,1.206637E3,9.489894E1,1.2083281E3,1.0313221E3,2.23954E2,9.7851715E1,4.8553326E2,1.3600022E3,2.1120357E2,4.3430466E2],"tree_param":{"num_deleted":"0","num_feature":"17","num_nodes":"31","size_leaf_vector":"1"}},{"base_weights":[-4.6432745E-3,-3.4397602E-1,3.1299147E-1,-5.5878925E-1,-1.0812987E-1,6.501658E-2,5.516495E-1,-8.1117594E-1,-4.688796E-1,-1.8663093E-1,8.49524E-2,-1.2317154E-1,1.3766463E-1,4.0741375E-1,7.122945E-1,-2.6037516E-2,-7.943075E-3,-2.1936275E-2,-1.1665753E-2,-9.497505E-3,-2.8794366E-3,-7.3579606E-3,4.630394E-3,-5.87258E-3,6.361771E-3,2.1786927E-3,9.689406E-3,6.4750947E-3,1.4733085E-2,1.1225284E-2,2.3137115E-2],"categories":[],"categories_nodes":[],"categories_segments":[],"categories_sizes":[],"default_left":[0,0,0,0,0,0,0,0,0,0,0,0,0,0,0,0,0,0,0,0,0,0,0,0,0,0,0,0,0,0,0],"id":14,"left_children":[1,3,5,7,9,11,13,15,17,19,21,23,25,27,29,-1,-1,-1,-1,-1,-1,-1,-1,-1,-1,-1,-1,-1,-1,-1,-1],"loss_changes":[1.0520447E3,2.3902533E2,2.983284E2,5.5656677E1,3.4129944E1,3.383533E1,5.9233032E1,1.9838165E1,3.7987854E1,1.8823078E1,1.4961317E1,1.6817677E1,2.149339E1,2.1633331E1,2.3905518E1,0E0,0E0,0E0,0E0,0E0,0E0,0E0,0E0,0E0,0E0,0E0,0E0,0E0,0E0,0E0,0E0],"parents":[2147483647,0,0,1,1,2,2,3,3,4,4,5,5,6,6,7,7,8,8,9,9,10,10,11,11,12,12,13,13,14,14],"right_children":[2,4,6,8,10,12,14,16,18,20,22,24,26,28,30,-1,-1,-1,-1,-1,-1,-1,-1,-1,-1,-1,-1,-1,-1,-1,-1],"split_conditions":[-0E0,-8.571429E-2,6.666667E-2,-3.3333334E-1,2E-1,-1.6666667E-1,2.5E-1,-4E0,-7.7E1,-3.4E1,-1.4E1,1.6E1,2E0,2.5E-2,7E0,-2.6037516E-2,-7.943075E-3,-2.1936275E-2,-1.1665753E-2,-9.497505E-3,-2.8794366E-3,-7.3579606E-3,4.630394E-3,-5.87258E-3,6.361771E-3,2.1786927E-3,9.689406E-3,6.4750947E-3,1.4733085E-2,1.1225284E-2,2.3137115E-2],"split_indices":[2,0,0,0,1,1,0,2,2,2,3,3,3,1,2,0,0,0,0,0,0,0,0,0,0,0,0,0,0,0,0],"split_type":[0,0,0,0,0,0,0,0,0,0,0,0,0,0,0,0,0,0,0,0,0,0,0,0,0,0,0,0,0,0,0],"sum_hessian":[9.758688E3,4.7181514E3,5.040537E3,2.4684607E3,2.249691E3,2.4726406E3,2.5678962E3,6.4627386E2,1.8221868E3,1.5994424E3,6.502486E2,6.884858E2,1.7841549E3,1.3549156E3,1.2129807E3,5.8494244E2,6.133142E1,4.2401648E2,1.3981703E3,6.562174E2,9.432249E2,1.1247795E2,5.377706E2,5.662931E2,1.22192665E2,1.3216707E3,4.6248434E2,4.1302237E2,9.418932E2,1.8115466E2,1.031826E3],"tree_param":{"num_deleted":"0","num_feature":"17","num_nodes":"31","size_leaf_vector":"1"}},{"base_weights":[-5.510022E-3,-3.2133767E-1,3.327802E-1,-5.522179E-1,-9.437669E-2,1.0882505E-1,5.4325414E-1,-6.8196946E-1,-4.1354907E-1,-1.7177175E-1,2.6316486E-2,2.5259655E-2,2.3712815E-1,4.5203465E-1,8.01673E-1,-2.252176E-2,-9.020054E-3,-1.8141538E-2,-9.937788E-3,-3.4483492E-3,-1.0077691E-2,-8.443929E-3,2.9960799E-3,2.5220022E-3,-6.431245E-3,2.6549636E-3,9.56766E-3,1.0969981E-2,1.8451378E-2,9.450559E-3,2.5533633E-2],"categories":[],"categories_nodes":[],"categories_segments":[],"categories_sizes":[],"default_left":[0,0,0,0,0,0,0,0,0,0,0,0,0,0,0,0,0,0,0,0,0,0,0,0,0,0,0,0,0,0,0],"id":15,"left_children":[1,3,5,7,9,11,13,15,17,19,21,23,25,27,29,-1,-1,-1,-1,-1,-1,-1,-1,-1,-1,-1,-1,-1,-1,-1,-1],"loss_changes":[1.0413613E3,2.6408685E2,2.2176868E2,4.467383E1,2.3760254E1,2.4452965E1,5.6820496E1,3.35744E1,1.883966E1,1.4416821E1,2.2541811E1,1.9501913E1,1.0908871E1,2.5049957E1,1.49305725E1,0E0,0E0,0E0,0E0,0E0,0E0,0E0,0E0,0E0,0E0,0E0,0E0,0E0,0E0,0E0,0E0],"parents":[2147483647,0,0,1,1,2,2,3,3,4,4,5,5,6,6,7,7,8,8,9,9,10,10,11,11,12,12,13,13,14,14],"right_children":[2,4,6,8,10,12,14,16,18,20,22,24,26,28,30,-1,-1,-1,-1,-1,-1,-1,-1,-1,-1,-1,-1,-1,-1,-1,-1],"split_conditions":[1E0,-8.571429E-2,1E-1,-2E-1,1E-1,3.4E1,3.5E-1,-6E0,-5.9E1,2E0,-1.4E1,1.647929E-1,-8.571429E-2,5.6E1,5E0,-2.252176E-2,-9.020054E-3,-1.8141538E-2,-9.937788E-3,-3.4483492E-3,-1.0077691E-2,-8.443929E-3,2.9960799E-3,2.5220022E-3,-6.431245E-3,2.6549636E-3,9.56766E-3,1.0969981E-2,1.8451378E-2,9.450559E-3,2.5533633E-2],"split_indices":[2,0,0,0,0,2,0,2,2,3,3,14,0,2,2,0,0,0,0,0,0,0,0,0,0,0,0,0,0,0,0],"split_type":[0,0,0,0,0,0,0,0,0,0,0,0,0,0,0,0,0,0,0,0,0,0,0,0,0,0,0,0,0,0,0],"sum_hessian":[9.744795E3,5.039743E3,4.7050522E3,2.49759E3,2.5421528E3,2.280257E3,2.424795E3,1.2882577E3,1.2093325E3,1.5486504E3,9.935025E2,1.3816006E3,8.986566E2,1.794206E3,6.3058887E2,1.0906276E3,1.9763014E2,3.6200354E2,8.473289E2,1.151662E3,3.9698837E2,1.910847E2,8.024178E2,1.1098812E3,2.717193E2,3.197372E2,5.789194E2,1.1749323E3,6.1927374E2,5.8843086E1,5.717457E2],"tree_param":{"num_deleted":"0","num_feature":"17","num_nodes":"31","size_leaf_vector":"1"}},{"base_weights":[-8.60207E-4,-2.6211187E-1,3.3526468E-1,-5.31805E-1,-1.5334857E-1,1.7029367E-1,5.011452E-1,-8.6803716E-1,-4.759238E-1,-2.656332E-1,-3.8978115E-2,6.1565423E-1,1.532668E-1,3.6121616E-1,6.173121E-1,-3.4515593E-2,-2.2621505E-2,-1.2094305E-2,-2.1924414E-2,-2.2456843E-2,-7.32441E-3,-2.9477796E-3,1.3715737E-3,1.2044537E-2,3.7604522E-2,3.423945E-3,9.822161E-3,9.824237E-3,2.6352216E-2,1.6243543E-2,2.6055837E-2],"categories":[],"categories_nodes":[],"categories_segments":[],"categories_sizes":[],"default_left":[0,0,0,0,0,0,0,0,0,0,0,0,0,0,0,0,0,0,0,0,0,0,0,0,0,0,0,0,0,0,0],"id":16,"left_children":[1,3,5,7,9,11,13,15,17,19,21,23,25,27,29,-1,-1,-1,-1,-1,-1,-1,-1,-1,-1,-1,-1,-1,-1,-1,-1],"loss_changes":[8.5372E2,1.60376E2,1.16265564E2,2.9117188E1,5.00683E1,1.6082123E1,3.422998E1,6.305496E0,2.4747406E1,2.0233246E1,9.710108E0,1.01821995E1,1.3974243E1,1.6532104E1,2.1572906E1,0E0,0E0,0E0,0E0,0E0,0E0,0E0,0E0,0E0,0E0,0E0,0E0,0E0,0E0,0E0,0E0],"parents":[2147483647,0,0,1,1,2,2,3,3,4,4,5,5,6,6,7,7,8,8,9,9,10,10,11,11,12,12,13,13,14,14],"right_children":[2,4,6,8,10,12,14,16,18,20,22,24,26,28,30,-1,-1,-1,-1,-1,-1,-1,-1,-1,-1,-1,-1,-1,-1,-1,-1],"split_conditions":[5E-2,-2.1428572E-1,2E-1,-5E-1,-6.666667E-2,-5E0,2.1428572E-1,-2E0,1E0,-5E0,-1.1111111E-2,1E0,2.5E-1,6.2E-2,1E0,-3.4515593E-2,-2.2621505E-2,-1.2094305E-2,-2.1924414E-2,-2.2456843E-2,-7.32441E-3,-2.9477796E-3,1.3715737E-3,1.2044537E-2,3.7604522E-2,3.423945E-3,9.822161E-3,9.824237E-3,2.6352216E-2,1.6243543E-2,2.6055837E-2],"split_indices":[0,0,1,1,1,5,0,5,9,5,0,9,0,12,9,0,0,0,0,0,0,0,0,0,0,0,0,0,0,0,0],"split_type":[0,0,0,0,0,0,0,0,0,0,0,0,0,0,0,0,0,0,0,0,0,0,0,0,0,0,0,0,0,0,0],"sum_hessian":[9.720001E3,5.4692607E3,4.25074E3,1.5706747E3,3.8985864E3,2.1322285E3,2.1185115E3,2.2177002E2,1.3489047E3,1.9665645E3,1.932022E3,7.72222E1,2.0550063E3,9.6283545E2,1.1556759E3,6.1145554E1,1.6062447E2,1.0513016E3,2.9760297E2,8.2326866E1,1.8842375E3,1.1364435E3,7.955784E2,5.9030476E1,1.819172E1,1.6792688E3,3.7573758E2,9.054002E2,5.7435265E1,8.900573E2,2.6561862E2],"tree_param":{"num_deleted":"0","num_feature":"17","num_nodes":"31","size_leaf_vector":"1"}},{"base_weights":[-2.4710898E-3,-3.180167E-1,2.9262415E-1,-5.1922774E-1,-9.950175E-2,3.5026416E-2,4.6650425E-1,-6.589341E-1,-3.7073165E-1,-7.839365E-2,-5.2715397E-1,-3.261738E-2,2.2485279E-1,3.8960156E-1,7.5486106E-1,-2.2935687E-2,-1.3114679E-2,-1.6890004E-2,-8.240051E-3,-3.0630963E-2,-2.0415087E-3,-2.21165E-2,-3.0488722E-5,2.6241327E-2,-1.3424328E-3,5.599942E-3,2.0670576E-2,9.928541E-3,1.8108133E-2,2.3866063E-2,7.5021E-3],"categories":[],"categories_nodes":[],"categories_segments":[],"categories_sizes":[],"default_left":[0,0,0,0,0,0,0,0,0,0,0,0,0,0,0,0,0,0,0,0,0,0,0,0,0,0,0,0,0,0,0],"id":17,"left_children":[1,3,5,7,9,11,13,15,17,19,21,23,25,27,29,-1,-1,-1,-1,-1,-1,-1,-1,-1,-1,-1,-1,-1,-1,-1,-1],"loss_changes":[9.0404193E2,2.0623596E2,2.24699E2,5.042505E1,2.0273115E1,2.598194E1,6.612372E1,2.9104797E1,2.175499E1,2.0851692E1,1.1678932E1,1.6463457E1,9.293972E0,2.9503876E1,1.2726654E1,0E0,0E0,0E0,0E0,0E0,0E0,0E0,0E0,0E0,0E0,0E0,0E0,0E0,0E0,0E0,0E0],"parents":[2147483647,0,0,1,1,2,2,3,3,4,4,5,5,6,6,7,7,8,8,9,9,10,10,11,11,12,12,13,13,14,14],"right_children":[2,4,6,8,10,12,14,16,18,20,22,24,26,28,30,-1,-1,-1,-1,-1,-1,-1,-1,-1,-1,-1,-1,-1,-1,-1,-1],"split_conditions":[-0E0,-8.571429E-2,2.1428572E-2,-2E-1,9.1E1,4.4E1,3.5E-1,-1.9E1,-5.5E1,-3.26E2,1.3E-2,-3.26E2,1.45E2,7.9E1,1.62E2,-2.2935687E-2,-1.3114679E-2,-1.6890004E-2,-8.240051E-3,-3.0630963E-2,-2.0415087E-3,-2.21165E-2,-3.0488722E-5,2.6241327E-2,-1.3424328E-3,5.599942E-3,2.0670576E-2,9.928541E-3,1.8108133E-2,2.3866063E-2,7.5021E-3],"split_indices":[2,0,0,0,3,2,0,2,2,3,12,3,2,2,3,0,0,0,0,0,0,0,0,0,0,0,0,0,0,0,0],"split_type":[0,0,0,0,0,0,0,0,0,0,0,0,0,0,0,0,0,0,0,0,0,0,0,0,0,0,0,0,0,0,0],"sum_hessian":[9.7067705E3,4.690808E3,5.015963E3,2.4413806E3,2.2494272E3,2.0218534E3,2.9941094E3,1.2561484E3,1.1852322E3,2.1447498E3,1.0467748E2,1.491273E3,5.305804E2,2.365578E3,6.2853143E2,8.4933295E2,4.0681552E2,3.932634E2,7.919688E2,2.2217882E1,2.122532E3,7.452276E1,3.0154722E1,1.873617E1,1.4725367E3,4.9154224E2,3.9038166E1,1.8587194E3,5.0685867E2,5.8112994E2,4.7401493E1],"tree_param":{"num_deleted":"0","num_feature":"17","num_nodes":"31","size_leaf_vector":"1"}},{"base_weights":[-1.1032127E-3,-2.4721515E-1,3.0828777E-1,-5.140084E-1,-1.4239751E-1,1.959611E-1,5.196113E-1,-4.5109427E-1,-7.212162E-1,-2.2953661E-1,-5.7560056E-2,1.5825911E-1,3.6325404E-1,4.523831E-1,7.439219E-1,-3.4347528E-3,-1.4634861E-2,-2.697788E-2,-1.5815243E-2,-5.5309776E-3,-1.2659342E-2,-9.263839E-4,-5.6820884E-3,3.896794E-3,8.81238E-3,3.258001E-2,9.706658E-3,1.2128047E-2,1.8541211E-2,1.5798923E-2,2.7849862E-2],"categories":[],"categories_nodes":[],"categories_segments":[],"categories_sizes":[],"default_left":[0,0,0,0,0,0,0,0,0,0,0,0,0,0,0,0,0,0,0,0,0,0,0,0,0,0,0,0,0,0,0],"id":18,"left_children":[1,3,5,7,9,11,13,15,17,19,21,23,25,27,29,-1,-1,-1,-1,-1,-1,-1,-1,-1,-1,-1,-1,-1,-1,-1,-1],"loss_changes":[7.402765E2,1.513471E2,1.021405E2,1.9579803E1,2.8735352E1,1.7691032E1,2.2197174E1,1.4459824E1,1.17547455E1,1.6595192E1,6.9300976E0,8.794357E0,1.44757E1,8.93425E0,1.3256119E1,0E0,0E0,0E0,0E0,0E0,0E0,0E0,0E0,0E0,0E0,0E0,0E0,0E0,0E0,0E0,0E0],"parents":[2147483647,0,0,1,1,2,2,3,3,4,4,5,5,6,6,7,7,8,8,9,9,10,10,11,11,12,12,13,13,14,14],"right_children":[2,4,6,8,10,12,14,16,18,20,22,24,26,28,30,-1,-1,-1,-1,-1,-1,-1,-1,-1,-1,-1,-1,-1,-1,-1,-1],"split_conditions":[2.1428572E-2,-2.25E-1,2.5E-1,1E0,-8.571429E-2,1E0,1E0,-6.3E1,-3.3333334E-1,1E0,3.7E-2,3.7E-2,-5E0,3.3E-2,3.5E-1,-3.4347528E-3,-1.4634861E-2,-2.697788E-2,-1.5815243E-2,-5.5309776E-3,-1.2659342E-2,-9.263839E-4,-5.6820884E-3,3.896794E-3,8.81238E-3,3.258001E-2,9.706658E-3,1.2128047E-2,1.8541211E-2,1.5798923E-2,2.7849862E-2],"split_indices":[0,0,0,9,0,9,9,3,0,9,12,12,5,12,0,0,0,0,0,0,0,0,0,0,0,0,0,0,0,0,0],"split_type":[0,0,0,0,0,0,0,0,0,0,0,0,0,0,0,0,0,0,0,0,0,0,0,0,0,0,0,0,0,0,0],"sum_hessian":[9.719954E3,5.4137036E3,4.30625E3,1.5259038E3,3.8877998E3,2.8129731E3,1.4932771E3,1.1729423E3,3.5296164E2,1.9170424E3,1.9707576E3,2.2972083E3,5.157647E2,1.1512517E3,3.420254E2,1.15816605E2,1.0571256E3,1.8217188E2,1.7078976E2,1.5541935E3,3.6284882E2,1.640092E3,3.3066556E2,1.9011387E3,3.960697E2,2.548238E1,4.9028232E2,8.9479926E2,2.5645248E2,1.5878313E2,1.8324226E2],"tree_param":{"num_deleted":"0","num_feature":"17","num_nodes":"31","size_leaf_vector":"1"}},{"base_weights":[9.561891E-4,-2.7889E-1,3.0167827E-1,-4.8134375E-1,-8.107698E-2,9.4489984E-2,4.96832E-1,-7.218891E-1,-3.9625135E-1,-6.2318474E-2,-6.092676E-1,7.0284633E-3,2.1108966E-1,4.1634032E-1,7.335661E-1,-2.4486689E-2,-1.2046304E-2,-1.5033629E-2,-8.337253E-3,-4.7058836E-3,5.7488994E-4,-3.1013042E-2,-9.471463E-3,8.61967E-3,-1.5687936E-3,1.926308E-2,5.435658E-3,1.0439546E-2,1.8975977E-2,1.4782827E-2,2.514582E-2],"categories":[],"categories_nodes":[],"categories_segments":[],"categories_sizes":[],"default_left":[0,0,0,0,0,0,0,0,0,0,0,0,0,0,0,0,0,0,0,0,0,0,0,0,0,0,0,0,0,0,0],"id":19,"left_children":[1,3,5,7,9,11,13,15,17,19,21,23,25,27,29,-1,-1,-1,-1,-1,-1,-1,-1,-1,-1,-1,-1,-1,-1,-1,-1],"loss_changes":[8.151258E2,2.0088544E2,1.8872952E2,5.0460815E1,2.5116951E1,2.3105246E1,4.550299E1,1.9213318E1,2.2617035E1,1.8898987E1,1.0509903E1,2.1559416E1,1.2398975E1,2.6325836E1,1.4922302E1,0E0,0E0,0E0,0E0,0E0,0E0,0E0,0E0,0E0,0E0,0E0,0E0,0E0,0E0,0E0,0E0],"parents":[2147483647,0,0,1,1,2,2,3,3,4,4,5,5,6,6,7,7,8,8,9,9,10,10,11,11,12,12,13,13,14,14],"right_children":[2,4,6,8,10,12,14,16,18,20,22,24,26,28,30,-1,-1,-1,-1,-1,-1,-1,-1,-1,-1,-1,-1,-1,-1,-1,-1],"split_conditions":[1E0,-8.571429E-2,1E-1,-3.3333334E-1,1.26E2,-4.4444446E-2,3.5E-1,-1.1E1,-2.9E1,5E-2,-7E-3,-1.4E1,-4E0,7.7E1,2E1,-2.4486689E-2,-1.2046304E-2,-1.5033629E-2,-8.337253E-3,-4.7058836E-3,5.7488994E-4,-3.1013042E-2,-9.471463E-3,8.61967E-3,-1.5687936E-3,1.926308E-2,5.435658E-3,1.0439546E-2,1.8975977E-2,1.4782827E-2,2.514582E-2],"split_indices":[2,0,0,0,3,0,0,2,2,0,12,3,5,2,2,0,0,0,0,0,0,0,0,0,0,0,0,0,0,0,0],"split_type":[0,0,0,0,0,0,0,0,0,0,0,0,0,0,0,0,0,0,0,0,0,0,0,0,0,0,0,0,0,0,0],"sum_hessian":[9.683898E3,5.0160923E3,4.6678066E3,2.4782593E3,2.5378328E3,2.2648132E3,2.4029934E3,6.456384E2,1.832621E3,2.4518733E3,8.595943E1,1.2947101E3,9.701031E2,1.7953256E3,6.076678E2,4.9756873E2,1.480697E2,9.699048E2,8.627162E2,1.1345319E3,1.3173414E3,3.4110817E1,5.184861E1,2.254793E2,1.0692308E3,6.1605587E1,9.084975E2,1.3660264E3,4.292992E2,1.8578534E2,4.2188245E2],"tree_param":{"num_deleted":"0","num_feature":"17","num_nodes":"31","size_leaf_vector":"1"}},{"base_weights":[-3.2489153E-3,-3.0198476E-1,2.7530524E-1,-5.662792E-1,-2.3687467E-1,1.5820003E-1,4.1240016E-1,-1.1945633E0,-5.399465E-1,-3.0645314E-1,-1.4694399E-1,1.945658E-1,1.3015154E-3,3.9902523E-1,1.196037E0,-3.841471E-2,3.3086773E-3,-2.656593E-2,-1.4832933E-2,-2.0254599E-2,-8.634179E-3,-6.021186E-3,2.3933966E-3,5.0073722E-3,1.1988372E-2,-3.4640788E-3,6.6139274E-3,1.0572618E-2,1.7366825E-2,3.7540495E-2,5.493369E-3],"categories":[],"categories_nodes":[],"categories_segments":[],"categories_sizes":[],"default_left":[0,0,0,0,0,0,0,0,0,0,0,0,0,0,0,0,0,0,0,0,0,0,0,0,0,0,0,0,0,0,0],"id":20,"left_children":[1,3,5,7,9,11,13,15,17,19,21,23,25,27,29,-1,-1,-1,-1,-1,-1,-1,-1,-1,-1,-1,-1,-1,-1,-1,-1],"loss_changes":[8.0465497E2,8.015637E1,8.026965E1,1.4601105E1,2.3390167E1,1.5406982E1,2.3677155E1,4.20504E0,1.3502838E1,1.431691E1,1.9953014E1,1.2363541E1,1.3054573E1,1.8802948E1,1.9096107E0,0E0,0E0,0E0,0E0,0E0,0E0,0E0,0E0,0E0,0E0,0E0,0E0,0E0,0E0,0E0,0E0],"parents":[2147483647,0,0,1,1,2,2,3,3,4,4,5,5,6,6,7,7,8,8,9,9,10,10,11,11,12,12,13,13,14,14],"right_children":[2,4,6,8,10,12,14,16,18,20,22,24,26,28,30,-1,-1,-1,-1,-1,-1,-1,-1,-1,-1,-1,-1,-1,-1,-1,-1],"split_conditions":[-0E0,-7.7E1,3E1,-2.09E2,-1.6E1,1.8E-1,2.09E2,9.7E-2,-4E0,-5E0,1.8E-1,1.1E-1,4.8E-2,3.5E-2,9.5E-2,-3.841471E-2,3.3086773E-3,-2.656593E-2,-1.4832933E-2,-2.0254599E-2,-8.634179E-3,-6.021186E-3,2.3933966E-3,5.0073722E-3,1.1988372E-2,-3.4640788E-3,6.6139274E-3,1.0572618E-2,1.7366825E-2,3.7540495E-2,5.493369E-3],"split_indices":[2,2,2,2,2,14,2,16,5,5,14,14,12,12,16,0,0,0,0,0,0,0,0,0,0,0,0,0,0,0,0],"split_type":[0,0,0,0,0,0,0,0,0,0,0,0,0,0,0,0,0,0,0,0,0,0,0,0,0,0,0,0,0,0,0],"sum_hessian":[9.667694E3,4.664819E3,5.002876E3,9.205266E2,3.744292E3,2.6993064E3,2.3035696E3,3.5244545E1,8.852821E2,2.1096611E3,1.6346309E3,2.1911936E3,5.0811273E2,2.2663965E3,3.71731E1,3.3084534E1,2.1600103E0,1.0087939E2,7.844027E2,9.986553E1,2.0097955E3,1.3214054E3,3.1322543E2,1.9323971E3,2.587966E2,3.3180096E2,1.7631177E2,1.802359E3,4.640375E2,3.5025097E1,2.1480036E0],"tree_param":{"num_deleted":"0","num_feature":"17","num_nodes":"31","size_leaf_vector":"1"}},{"base_weights":[-9.670965E-3,-2.773667E-1,2.7735168E-1,-4.7990182E-1,-8.058868E-2,7.2784446E-2,4.6956944E-1,-5.5536884E-1,-2.2554E-1,-1.6692719E-1,2.8624145E-2,5.2966148E-2,5.7323253E-1,2.9342562E-1,5.9151757E-1,-2.6690312E-2,-1.5193219E-2,-1.3807032E-2,-3.1802875E-3,-3.3546486E-3,-9.836899E-3,-3.5249317E-4,1.1435684E-2,-9.2987146E-4,4.9500912E-3,2.047183E-2,-6.5119877E-3,6.2397923E-3,1.4099138E-2,1.0379171E-2,1.9541405E-2],"categories":[],"categories_nodes":[],"categories_segments":[],"categories_sizes":[],"default_left":[0,0,0,0,0,0,0,0,0,0,0,0,0,0,0,0,0,0,0,0,0,0,0,0,0,0,0,0,0,0,0],"id":21,"left_children":[1,3,5,7,9,11,13,15,17,19,21,23,25,27,29,-1,-1,-1,-1,-1,-1,-1,-1,-1,-1,-1,-1,-1,-1,-1,-1],"loss_changes":[7.4327783E2,1.9944739E2,1.8353238E2,4.7219482E1,2.3954813E1,2.241129E1,5.1522156E1,3.0650635E1,1.5829611E1,1.2547501E1,1.5979542E1,2.0489632E1,7.575222E0,1.4781853E1,2.0663483E1,0E0,0E0,0E0,0E0,0E0,0E0,0E0,0E0,0E0,0E0,0E0,0E0,0E0,0E0,0E0,0E0],"parents":[2147483647,0,0,1,1,2,2,3,3,4,4,5,5,6,6,7,7,8,8,9,9,10,10,11,11,12,12,13,13,14,14],"right_children":[2,4,6,8,10,12,14,16,18,20,22,24,26,28,30,-1,-1,-1,-1,-1,-1,-1,-1,-1,-1,-1,-1,-1,-1,-1,-1],"split_conditions":[1E0,-8.571429E-2,1E-1,-2.5E-2,1E-1,1.12E2,2E-1,-1.18E2,-4.8E1,2E0,1E0,-4.4444446E-2,7.549112E-2,5.6E1,1.1E1,-2.6690312E-2,-1.5193219E-2,-1.3807032E-2,-3.1802875E-3,-3.3546486E-3,-9.836899E-3,-3.5249317E-4,1.1435684E-2,-9.2987146E-4,4.9500912E-3,2.047183E-2,-6.5119877E-3,6.2397923E-3,1.4099138E-2,1.0379171E-2,1.9541405E-2],"split_indices":[2,0,0,1,1,3,1,2,2,3,10,0,15,2,2,0,0,0,0,0,0,0,0,0,0,0,0,0,0,0,0],"split_type":[0,0,0,0,0,0,0,0,0,0,0,0,0,0,0,0,0,0,0,0,0,0,0,0,0,0,0,0,0,0,0],"sum_hessian":[9.671721E3,5.0043633E3,4.667357E3,2.4653975E3,2.538966E3,2.2617134E3,2.4056436E3,1.9003855E3,5.6501196E2,1.4176838E3,1.1212822E3,2.1766226E3,8.509082E1,9.855319E2,1.4201116E3,2.4043051E2,1.659955E3,1.8969707E2,3.753149E2,1.0573947E3,3.6028912E2,1.0069395E3,1.1434273E2,1.2446155E3,9.320072E2,7.488385E1,1.0206965E1,6.656123E2,3.1991968E2,2.7968314E2,1.1404285E3],"tree_param":{"num_deleted":"0","num_feature":"17","num_nodes":"31","size_leaf_vector":"1"}},{"base_weights":[-4.484378E-4,-2.604167E-1,2.77846E-1,-5.204186E-1,-2.0143116E-1,2.061249E-1,4.8441553E-1,-7.2567993E-1,-4.411393E-1,-2.8081045E-1,-1.0307443E-1,4.22174E-1,1.7948797E-1,4.2520237E-1,7.013029E-1,-1.6651187E-2,-3.0962354E-2,-1.1261004E-2,-1.9983646E-2,-7.85445E-3,-2.1574017E-2,-4.167245E-3,1.7043335E-3,1.7545024E-2,2.722028E-3,1.0329016E-2,4.3473165E-3,5.371006E-3,1.4381672E-2,1.6609084E-2,2.9271014E-2],"categories":[],"categories_nodes":[],"categories_segments":[],"categories_sizes":[],"default_left":[0,0,0,0,0,0,0,0,0,0,0,0,0,0,0,0,0,0,0,0,0,0,0,0,0,0,0,0,0,0,0],"id":22,"left_children":[1,3,5,7,9,11,13,15,17,19,21,23,25,27,29,-1,-1,-1,-1,-1,-1,-1,-1,-1,-1,-1,-1,-1,-1,-1,-1],"loss_changes":[7.0010406E2,7.662604E1,6.914337E1,1.47247925E1,3.1822998E1,1.989917E1,1.5161407E1,1.2814209E1,9.65683E0,1.8604294E1,1.0455908E1,2.0445831E1,1.7569244E1,1.256163E1,9.858078E0,0E0,0E0,0E0,0E0,0E0,0E0,0E0,0E0,0E0,0E0,0E0,0E0,0E0,0E0,0E0,0E0],"parents":[2147483647,0,0,1,1,2,2,3,3,4,4,5,5,6,6,7,7,8,8,9,9,10,10,11,11,12,12,13,13,14,14],"right_children":[2,4,6,8,10,12,14,16,18,20,22,24,26,28,30,-1,-1,-1,-1,-1,-1,-1,-1,-1,-1,-1,-1,-1,-1,-1,-1],"split_conditions":[1E0,-7.7E1,6.4E1,-1.38E2,-1.4E1,-4.8E-2,1.38E2,1E0,3.2E-2,1.12E2,1.8E-1,1E0,-1.4E1,-2E-1,1E0,-1.6651187E-2,-3.0962354E-2,-1.1261004E-2,-1.9983646E-2,-7.85445E-3,-2.1574017E-2,-4.167245E-3,1.7043335E-3,1.7545024E-2,2.722028E-3,1.0329016E-2,4.3473165E-3,5.371006E-3,1.4381672E-2,1.6609084E-2,2.9271014E-2],"split_indices":[2,2,2,2,2,12,2,3,12,3,14,5,3,14,3,0,0,0,0,0,0,0,0,0,0,0,0,0,0,0,0],"split_type":[0,0,0,0,0,0,0,0,0,0,0,0,0,0,0,0,0,0,0,0,0,0,0,0,0,0,0,0,0,0,0],"sum_hessian":[9.674934E3,5.002201E3,4.672733E3,9.235351E2,4.078666E3,3.469958E3,1.2027747E3,2.5504538E2,6.684897E2,2.2560525E3,1.8226135E3,3.7922852E2,3.0907297E3,9.471503E2,2.5562427E2,1.6561957E2,8.942581E1,5.193334E2,1.4915634E2,2.1638748E3,9.2177666E1,1.4890233E3,3.335903E2,2.5387175E2,1.25356766E2,5.344289E2,2.5563008E3,1.7165059E2,7.7549976E2,1.6815144E2,8.7472824E1],"tree_param":{"num_deleted":"0","num_feature":"17","num_nodes":"31","size_leaf_vector":"1"}},{"base_weights":[5.47356E-3,-2.4137977E-1,2.7118888E-1,-4.3458667E-1,-5.3874552E-2,1.0445238E-1,4.8623908E-1,-7.0475376E-1,-3.7124035E-1,-1.8428963E-1,1.6188737E-2,3.4614345E-3,2.0218417E-1,2.7383924E-1,5.673519E-1,-2.3157272E-2,-2.3130656E-3,-1.6536623E-2,-9.48846E-3,2.955229E-3,-7.0191678E-3,-1.5881976E-2,8.9978415E-4,-4.582519E-4,2.7195713E-2,7.6874923E-3,3.2418345E-3,9.342185E-3,-1.3454751E-2,1.4842946E-2,2.461391E-2],"categories":[],"categories_nodes":[],"categories_segments":[],"categories_sizes":[],"default_left":[0,0,0,0,0,0,0,0,0,0,0,0,0,0,0,0,0,0,0,0,0,0,0,0,0,0,0,0,0,0,0],"id":23,"left_children":[1,3,5,7,9,11,13,15,17,19,21,23,25,27,29,-1,-1,-1,-1,-1,-1,-1,-1,-1,-1,-1,-1,-1,-1,-1,-1],"loss_changes":[6.3442706E2,1.8162332E2,1.669747E2,4.1999176E1,2.3264109E1,2.5908876E1,3.4888092E1,1.9662842E1,1.963272E1,1.2524334E1,1.2495047E1,2.1875277E1,6.761032E0,1.5445576E1,2.6620361E1,0E0,0E0,0E0,0E0,0E0,0E0,0E0,0E0,0E0,0E0,0E0,0E0,0E0,0E0,0E0,0E0],"parents":[2147483647,0,0,1,1,2,2,3,3,4,4,5,5,6,6,7,7,8,8,9,9,10,10,11,11,12,12,13,13,14,14],"right_children":[2,4,6,8,10,12,14,16,18,20,22,24,26,28,30,-1,-1,-1,-1,-1,-1,-1,-1,-1,-1,-1,-1,-1,-1,-1,-1],"split_conditions":[1E0,-8.571429E-2,1.1363637E-1,-3.857143E-1,-3.3E1,-4.4444446E-2,1.5E1,-2E0,-7.7E1,-7E-2,-1.78E2,1.45E2,1.2E-2,1.42E2,3.857143E-1,-2.3157272E-2,-2.3130656E-3,-1.6536623E-2,-9.48846E-3,2.955229E-3,-7.0191678E-3,-1.5881976E-2,8.9978415E-4,-4.582519E-4,2.7195713E-2,7.6874923E-3,3.2418345E-3,9.342185E-3,-1.3454751E-2,1.4842946E-2,2.461391E-2],"split_indices":[2,0,0,0,2,0,2,2,2,15,3,2,13,3,0,0,0,0,0,0,0,0,0,0,0,0,0,0,0,0,0],"split_type":[0,0,0,0,0,0,0,0,0,0,0,0,0,0,0,0,0,0,0,0,0,0,0,0,0,0,0,0,0,0,0],"sum_hessian":[9.670221E3,5.013085E3,4.657136E3,2.4683547E3,2.5447302E3,2.624077E3,2.0330593E3,4.669071E2,2.0014475E3,8.887639E2,1.6559663E3,1.2910295E3,1.3330474E3,5.6304913E2,1.4700103E3,4.215714E2,4.53357E1,4.6607883E2,1.5353688E3,1.3266158E2,7.5610236E2,3.9942432E1,1.6160239E3,1.2657511E3,2.5278383E1,8.4560016E2,4.8744717E2,5.357545E2,2.7294603E1,1.1446923E3,3.2531802E2],"tree_param":{"num_deleted":"0","num_feature":"17","num_nodes":"31","size_leaf_vector":"1"}},{"base_weights":[-4.0464834E-3,-2.647498E-1,2.383717E-1,-5.273702E-1,-1.3684472E-1,6.016051E-2,4.2726576E-1,-6.1074257E-1,-3.0112234E-1,-2.3142332E-1,-2.8029894E-3,-8.216089E-2,1.1501771E-1,2.5168747E-1,5.2928054E-1,-2.3791622E-2,-1.5397555E-2,-4.2355616E-2,-8.34823E-3,-2.387866E-2,-6.2550837E-3,-2.5153885E-2,4.4150595E-4,8.534825E-3,-4.7233654E-3,1.7648345E-3,8.17901E-3,5.555018E-3,1.4498793E-2,1.3617181E-2,2.2572866E-2],"categories":[],"categories_nodes":[],"categories_segments":[],"categories_sizes":[],"default_left":[0,0,0,0,0,0,0,0,0,0,0,0,0,0,0,0,0,0,0,0,0,0,0,0,0,0,0,0,0,0,0],"id":24,"left_children":[1,3,5,7,9,11,13,15,17,19,21,23,25,27,29,-1,-1,-1,-1,-1,-1,-1,-1,-1,-1,-1,-1,-1,-1,-1,-1],"loss_changes":[6.096802E2,1.5606207E2,1.6824875E2,2.8525726E1,3.964373E1,2.0100048E1,4.3329193E1,1.93432E1,1.0058071E1,2.355783E1,1.8967455E1,1.9822712E1,1.6437344E1,1.3678307E1,2.5457489E1,0E0,0E0,0E0,0E0,0E0,0E0,0E0,0E0,0E0,0E0,0E0,0E0,0E0,0E0,0E0,0E0],"parents":[2147483647,0,0,1,1,2,2,3,3,4,4,5,5,6,6,7,7,8,8,9,9,10,10,11,11,12,12,13,13,14,14],"right_children":[2,4,6,8,10,12,14,16,18,20,22,24,26,28,30,-1,-1,-1,-1,-1,-1,-1,-1,-1,-1,-1,-1,-1,-1,-1,-1],"split_conditions":[-0E0,-1.875E-1,1E-1,-1.14285715E-1,5E-2,-1.6666667E-1,1.14285715E-1,-3.857143E-1,-1.86E2,-5E0,-1.45E2,-1.4E1,2E0,7.7E1,4E-1,-2.3791622E-2,-1.5397555E-2,-4.2355616E-2,-8.34823E-3,-2.387866E-2,-6.2550837E-3,-2.5153885E-2,4.4150595E-4,8.534825E-3,-4.7233654E-3,1.7648345E-3,8.17901E-3,5.555018E-3,1.4498793E-2,1.3617181E-2,2.2572866E-2],"split_indices":[2,0,0,1,0,1,1,0,2,5,2,3,3,2,0,0,0,0,0,0,0,0,0,0,0,0,0,0,0,0,0],"split_type":[0,0,0,0,0,0,0,0,0,0,0,0,0,0,0,0,0,0,0,0,0,0,0,0,0,0,0,0,0,0,0],"sum_hessian":[9.64496E3,4.6471704E3,4.997789E3,1.5210201E3,3.1261501E3,2.5722915E3,2.4254976E3,1.1102085E3,4.1081168E2,1.8324584E3,1.2936918E3,7.155007E2,1.8567909E3,8.926385E2,1.532859E3,3.8434103E2,7.258675E2,7.054831E0,4.0375684E2,7.0180756E1,1.7622777E3,2.5603456E1,1.2680884E3,1.21412476E2,5.940882E2,1.3698237E3,4.8696722E2,6.948639E2,1.977746E2,1.1480931E3,3.8476587E2],"tree_param":{"num_deleted":"0","num_feature":"17","num_nodes":"31","size_leaf_vector":"1"}},{"base_weights":[4.242546E-3,-2.4481018E-1,2.3575257E-1,-4.2201367E-1,-5.6579057E-2,8.175072E-2,4.5447028E-1,-5.2347165E-1,-2.5080776E-1,-1.2648273E-1,1.1711033E-1,-7.4605085E-2,1.3323468E-1,1.1681663E-1,4.9963525E-1,-2.0565288E-2,-1.3200369E-2,-8.690646E-3,4.8683686E-3,-1.9897441E-3,-8.178495E-3,-7.0692855E-3,5.6637446E-3,7.3388205E-3,-4.1981544E-3,1.8834098E-3,7.429052E-3,4.8448294E-3,-1.9761989E-2,1.3190606E-2,2.2618253E-2],"categories":[],"categories_nodes":[],"categories_segments":[],"categories_sizes":[],"default_left":[0,0,0,0,0,0,0,0,0,0,0,0,0,0,0,0,0,0,0,0,0,0,0,0,0,0,0,0,0,0,0],"id":25,"left_children":[1,3,5,7,9,11,13,15,17,19,21,23,25,27,29,-1,-1,-1,-1,-1,-1,-1,-1,-1,-1,-1,-1,-1,-1,-1,-1],"loss_changes":[5.544273E2,1.5449008E2,1.6781766E2,4.1312775E1,2.7302261E1,2.3560036E1,3.1339142E1,1.9945984E1,1.43368225E1,1.40738945E1,1.6365623E1,1.5162048E1,1.772628E1,8.568082E0,2.7348236E1,0E0,0E0,0E0,0E0,0E0,0E0,0E0,0E0,0E0,0E0,0E0,0E0,0E0,0E0,0E0,0E0],"parents":[2147483647,0,0,1,1,2,2,3,3,4,4,5,5,6,6,7,7,8,8,9,9,10,10,11,11,12,12,13,13,14,14],"right_children":[2,4,6,8,10,12,14,16,18,20,22,24,26,28,30,-1,-1,-1,-1,-1,-1,-1,-1,-1,-1,-1,-1,-1,-1,-1,-1],"split_conditions":[-0E0,-8.571429E-2,1.1363637E-1,-1.14285715E-1,2E-1,-1.6666667E-1,5E0,-3.3333334E-1,-4E0,1E0,-1.4E1,-1.4E1,3.5E1,1E0,4.5E-1,-2.0565288E-2,-1.3200369E-2,-8.690646E-3,4.8683686E-3,-1.9897441E-3,-8.178495E-3,-7.0692855E-3,5.6637446E-3,7.3388205E-3,-4.1981544E-3,1.8834098E-3,7.429052E-3,4.8448294E-3,-1.9761989E-2,1.3190606E-2,2.2618253E-2],"split_indices":[2,0,0,1,1,1,2,0,2,3,3,3,2,8,1,0,0,0,0,0,0,0,0,0,0,0,0,0,0,0,0],"split_type":[0,0,0,0,0,0,0,0,0,0,0,0,0,0,0,0,0,0,0,0,0,0,0,0,0,0,0,0,0,0,0],"sum_hessian":[9.613757E3,4.631378E3,4.982379E3,2.3849292E3,2.2464485E3,2.9245447E3,2.0578342E3,1.4962072E3,8.8872217E2,1.6019811E3,6.4446735E2,7.243272E2,2.2002173E3,2.4320662E2,1.8146274E3,5.061988E2,9.900083E2,8.1254297E2,7.617921E1,1.135848E3,4.6613303E2,1.08455444E2,5.360119E2,1.225888E2,6.017384E2,1.3625992E3,8.376181E2,2.3070782E2,1.24987955E1,1.470671E3,3.4395654E2],"tree_param":{"num_deleted":"0","num_feature":"17","num_nodes":"31","size_leaf_vector":"1"}},{"base_weights":[1.3968564E-3,-2.2419953E-1,2.4246956E-1,-3.948238E-1,-4.8995502E-2,6.740305E-2,4.117054E-1,-6.220498E-1,-3.1988066E-1,-1.05478324E-1,9.854533E-2,4.837489E-2,5.8178896E-1,3.408623E-1,6.214642E-1,-2.1448694E-2,-1.2653636E-2,-1.4973168E-2,-8.054189E-3,-1.0449486E-2,-2.0989769E-3,-6.0620843E-3,4.772546E-3,-1.5084533E-3,4.120737E-3,2.3291552E-2,2.020437E-3,9.391824E-3,2.1795988E-2,5.688515E-3,2.0675227E-2],"categories":[],"categories_nodes":[],"categories_segments":[],"categories_sizes":[],"default_left":[0,0,0,0,0,0,0,0,0,0,0,0,0,0,0,0,0,0,0,0,0,0,0,0,0,0,0,0,0,0,0],"id":26,"left_children":[1,3,5,7,9,11,13,15,17,19,21,23,25,27,29,-1,-1,-1,-1,-1,-1,-1,-1,-1,-1,-1,-1,-1,-1,-1,-1],"loss_changes":[5.2119165E2,1.4797372E2,1.3722958E2,4.2508667E1,2.037464E1,2.2271933E1,3.478952E1,1.1251663E1,1.7260971E1,1.5219208E1,1.2353455E1,1.9304098E1,8.074846E0,1.86754E1,1.7222092E1,0E0,0E0,0E0,0E0,0E0,0E0,0E0,0E0,0E0,0E0,0E0,0E0,0E0,0E0,0E0,0E0],"parents":[2147483647,0,0,1,1,2,2,3,3,4,4,5,5,6,6,7,7,8,8,9,9,10,10,11,11,12,12,13,13,14,14],"right_children":[2,4,6,8,10,12,14,16,18,20,22,24,26,28,30,-1,-1,-1,-1,-1,-1,-1,-1,-1,-1,-1,-1,-1,-1,-1,-1],"split_conditions":[1E0,-5.7142857E-2,1E-1,-3.3333334E-1,2E-1,1.26E2,3.5E-1,-1.9E1,-7.7E1,-7.9E1,-1.4E1,-7.1428575E-2,1.5E-2,1.38E2,7E0,-2.1448694E-2,-1.2653636E-2,-1.4973168E-2,-8.054189E-3,-1.0449486E-2,-2.0989769E-3,-6.0620843E-3,4.772546E-3,-1.5084533E-3,4.120737E-3,2.3291552E-2,2.020437E-3,9.391824E-3,2.1795988E-2,5.688515E-3,2.0675227E-2],"split_indices":[2,0,0,0,1,3,0,2,2,2,3,1,12,2,2,0,0,0,0,0,0,0,0,0,0,0,0,0,0,0,0],"split_type":[0,0,0,0,0,0,0,0,0,0,0,0,0,0,0,0,0,0,0,0,0,0,0,0,0,0,0,0,0,0,0],"sum_hessian":[9.581349E3,4.9495854E3,4.631763E3,2.5069312E3,2.4426543E3,2.27735E3,2.354413E3,6.1995135E2,1.8869797E3,1.7666252E3,6.760292E2,2.1971665E3,8.0183525E1,1.7619606E3,5.924525E2,4.217299E2,1.9822145E2,4.186636E2,1.4683162E3,2.242654E2,1.5423599E3,1.12929436E2,5.6309973E2,1.0421526E3,1.1550139E3,5.780763E1,2.2375898E1,1.6451779E3,1.167828E2,8.0816216E1,5.1163632E2],"tree_param":{"num_deleted":"0","num_feature":"17","num_nodes":"31","size_leaf_vector":"1"}},{"base_weights":[3.5701608E-3,-2.2143275E-1,2.4287973E-1,-3.8076794E-1,-4.875836E-2,1.1702248E-1,4.3663245E-1,-7.3949295E-1,-3.4184185E-1,-2.6019633E-1,-2.7073082E-3,7.0273235E-2,3.564923E-1,2.6747096E-1,5.086514E-1,-2.3669358E-2,-5.440216E-3,-9.089417E-3,-1.7668026E-2,4.828212E-4,-9.889278E-3,-2.6041877E-2,2.8958166E-4,3.0459676E-2,1.744335E-3,6.1588595E-3,1.361391E-2,-2.938759E-2,8.430254E-3,1.315376E-2,2.313372E-2],"categories":[],"categories_nodes":[],"categories_segments":[],"categories_sizes":[],"default_left":[0,0,0,0,0,0,0,0,0,0,0,0,0,0,0,0,0,0,0,0,0,0,0,0,0,0,0,0,0,0,0],"id":27,"left_children":[1,3,5,7,9,11,13,15,17,19,21,23,25,27,29,-1,-1,-1,-1,-1,-1,-1,-1,-1,-1,-1,-1,-1,-1,-1,-1],"loss_changes":[5.1693964E2,1.361202E2,1.1339639E2,3.568051E1,2.313248E1,3.1563667E1,2.2178497E1,6.7908783E0,2.2130493E1,8.157936E0,2.0885761E1,2.7015305E1,6.6836815E0,9.54443E0,2.331018E1,0E0,0E0,0E0,0E0,0E0,0E0,0E0,0E0,0E0,0E0,0E0,0E0,0E0,0E0,0E0,0E0],"parents":[2147483647,0,0,1,1,2,2,3,3,4,4,5,5,6,6,7,7,8,8,9,9,10,10,11,11,12,12,13,13,14,14],"right_children":[2,4,6,8,10,12,14,16,18,20,22,24,26,28,30,-1,-1,-1,-1,-1,-1,-1,-1,-1,-1,-1,-1,-1,-1,-1,-1],"split_conditions":[1E0,-0E0,1.6666667E-1,-5E-1,-6.2E1,7.9E1,1.7E1,8.4E-2,4.5E-2,-5.6474842E-2,-3.26E2,-3.26E2,-7.1428575E-2,-1.62E-1,3.5E-2,-2.3669358E-2,-5.440216E-3,-9.089417E-3,-1.7668026E-2,4.828212E-4,-9.889278E-3,-2.6041877E-2,2.8958166E-4,3.0459676E-2,1.744335E-3,6.1588595E-3,1.361391E-2,-2.938759E-2,8.430254E-3,1.315376E-2,2.313372E-2],"split_indices":[2,1,1,1,2,2,2,16,12,15,3,3,1,16,12,0,0,0,0,0,0,0,0,0,0,0,0,0,0,0,0],"split_type":[0,0,0,0,0,0,0,0,0,0,0,0,0,0,0,0,0,0,0,0,0,0,0,0,0,0,0,0,0,0,0],"sum_hessian":[9.598453E3,4.9471416E3,4.6513115E3,2.572325E3,2.3748167E3,2.8206724E3,1.8306392E3,2.500433E2,2.3222817E3,4.2389636E2,1.9509202E3,2.3610435E3,4.5962885E2,5.4805505E2,1.2825841E3,2.2930008E2,2.0743235E1,2.0086057E3,3.1367596E2,8.530012E1,3.3859625E2,2.6498035E1,1.9244222E3,2.8869534E1,2.332174E3,1.8119254E2,2.7843634E2,5.1192007E0,5.4293585E2,1.01406476E3,2.6851938E2],"tree_param":{"num_deleted":"0","num_feature":"17","num_nodes":"31","size_leaf_vector":"1"}},{"base_weights":[1.3472539E-3,-2.1437778E-1,2.343368E-1,-3.511207E-1,-1.2982112E-2,1.0383268E-1,4.2240086E-1,-4.9250066E-1,-2.4886757E-1,-1.605022E-1,3.6718395E-2,5.2358285E-3,1.75982E-1,2.3014005E-1,4.9192813E-1,-1.7018605E-2,-7.175133E-3,-2.3337772E-2,-6.759858E-3,-5.440366E-3,2.4038771E-2,7.6800335E-4,1.6347354E-2,6.896099E-4,-2.2915559E-2,2.1377033E-2,4.6672714E-3,1.7035913E-2,5.270887E-3,1.2989098E-2,2.416718E-2],"categories":[],"categories_nodes":[],"categories_segments":[],"categories_sizes":[],"default_left":[0,0,0,0,0,0,0,0,0,0,0,0,0,0,0,0,0,0,0,0,0,0,0,0,0,0,0,0,0,0,0],"id":28,"left_children":[1,3,5,7,9,11,13,15,17,19,21,23,25,27,29,-1,-1,-1,-1,-1,-1,-1,-1,-1,-1,-1,-1,-1,-1,-1,-1],"loss_changes":[4.8007025E2,1.3657617E2,1.1265718E2,4.25795E1,1.4718219E1,1.9292492E1,2.502829E1,2.3332184E1,2.1196373E1,1.0286463E1,8.471414E0,1.5677434E1,1.7037407E1,9.119371E0,2.5177673E1,0E0,0E0,0E0,0E0,0E0,0E0,0E0,0E0,0E0,0E0,0E0,0E0,0E0,0E0,0E0,0E0],"parents":[2147483647,0,0,1,1,2,2,3,3,4,4,5,5,6,6,7,7,8,8,9,9,10,10,11,11,12,12,13,13,14,14],"right_children":[2,4,6,8,10,12,14,16,18,20,22,24,26,28,30,-1,-1,-1,-1,-1,-1,-1,-1,-1,-1,-1,-1,-1,-1,-1,-1],"split_conditions":[1E0,-0E0,1.5E-1,-2E-1,-4.4E1,-7.1428575E-2,1.5E1,-1E1,-5E0,8.6E-2,5.6666666E-1,8.2E-2,-5E0,-4.4E-2,4.5E-1,-1.7018605E-2,-7.175133E-3,-2.3337772E-2,-6.759858E-3,-5.440366E-3,2.4038771E-2,7.6800335E-4,1.6347354E-2,6.896099E-4,-2.2915559E-2,2.1377033E-2,4.6672714E-3,1.7035913E-2,5.270887E-3,1.2989098E-2,2.416718E-2],"split_indices":[2,0,0,0,2,1,2,2,5,12,1,12,5,12,0,0,0,0,0,0,0,0,0,0,0,0,0,0,0,0,0],"split_type":[0,0,0,0,0,0,0,0,0,0,0,0,0,0,0,0,0,0,0,0,0,0,0,0,0,0,0,0,0,0,0],"sum_hessian":[9.549418E3,4.95846E3,4.5909585E3,2.9528206E3,2.0056393E3,2.7111504E3,1.8798082E3,1.2377009E3,1.7151195E3,5.0486865E2,1.5007708E3,1.1460581E3,1.5650922E3,5.003957E2,1.3794125E3,9.546397E2,2.8306128E2,7.1693756E1,1.6434258E3,4.949538E2,9.914841E0,1.4696676E3,3.11031E1,1.1211511E3,2.4906963E1,5.6096916E1,1.5089952E3,6.815972E1,4.32236E2,1.1631472E3,2.1626529E2],"tree_param":{"num_deleted":"0","num_feature":"17","num_nodes":"31","size_leaf_vector":"1"}},{"base_weights":[-3.3001846E-3,-2.2217503E-1,2.3116098E-1,-3.963555E-1,-5.605466E-2,8.841787E-2,4.3381083E-1,-5.0286454E-1,-2.195064E-1,-3.6692705E-2,-5.398209E-1,-6.141994E-2,1.4463176E-1,3.6664772E-1,6.551762E-1,-2.0137096E-2,-1.2518327E-2,-6.219876E-3,-3.5538506E-2,-2.7544482E-3,3.416182E-3,-2.246744E-2,-3.7019588E-3,7.1076765E-3,-3.827316E-3,1.6587623E-3,7.390946E-3,5.282902E-3,1.3048836E-2,3.1054158E-2,1.6647542E-2],"categories":[],"categories_nodes":[],"categories_segments":[],"categories_sizes":[],"default_left":[0,0,0,0,0,0,0,0,0,0,0,0,0,0,0,0,0,0,0,0,0,0,0,0,0,0,0,0,0,0,0],"id":29,"left_children":[1,3,5,7,9,11,13,15,17,19,21,23,25,27,29,-1,-1,-1,-1,-1,-1,-1,-1,-1,-1,-1,-1,-1,-1,-1,-1],"loss_changes":[4.9117416E2,1.4321014E2,1.3363548E2,4.5402954E1,2.3723408E1,2.2856657E1,2.8150055E1,2.144043E1,1.0449177E1,2.0247868E1,8.395004E0,1.4650339E1,1.7917053E1,1.9023697E1,1.6310059E1,0E0,0E0,0E0,0E0,0E0,0E0,0E0,0E0,0E0,0E0,0E0,0E0,0E0,0E0,0E0,0E0],"parents":[2147483647,0,0,1,1,2,2,3,3,4,4,5,5,6,6,7,7,8,8,9,9,10,10,11,11,12,12,13,13,14,14],"right_children":[2,4,6,8,10,12,14,16,18,20,22,24,26,28,30,-1,-1,-1,-1,-1,-1,-1,-1,-1,-1,-1,-1,-1,-1,-1,-1],"split_conditions":[1E0,-8.571429E-2,1.5E-1,-1.14285715E-1,1.12E2,-1.5E-1,1E0,-3.3333334E-1,8E0,2E-1,8E-3,-1.4E1,3.1E1,1.5E1,-4E-2,-2.0137096E-2,-1.2518327E-2,-6.219876E-3,-3.5538506E-2,-2.7544482E-3,3.416182E-3,-2.246744E-2,-3.7019588E-3,7.1076765E-3,-3.827316E-3,1.6587623E-3,7.390946E-3,5.282902E-3,1.3048836E-2,3.1054158E-2,1.6647542E-2],"split_indices":[2,0,0,1,3,1,9,0,5,1,12,3,2,2,12,0,0,0,0,0,0,0,0,0,0,0,0,0,0,0,0],"split_type":[0,0,0,0,0,0,0,0,0,0,0,0,0,0,0,0,0,0,0,0,0,0,0,0,0,0,0,0,0,0,0],"sum_hessian":[9.569251E3,4.949155E3,4.620096E3,2.4152898E3,2.5338647E3,2.7115576E3,1.9085387E3,1.5062769E3,9.090128E2,2.4373882E3,9.647664E1,7.397268E2,1.9718308E3,1.4663107E3,4.4222803E2,5.05326E2,1.0009509E3,8.9888605E2,1.0126791E1,1.7844783E3,6.5291E2,6.369545E1,3.2781185E1,1.3379305E2,6.059337E2,1.0506862E3,9.211447E2,3.8789862E2,1.078412E3,9.037948E1,3.5184854E2],"tree_param":{"num_deleted":"0","num_feature":"17","num_nodes":"31","size_leaf_vector":"1"}},{"base_weights":[-1.7206984E-3,-1.8251371E-1,2.3217845E-1,-4.0656686E-1,-9.774661E-2,1.4071606E-1,4.0256023E-1,-3.3913323E-1,-6.342123E-1,-1.7126845E-1,-2.8958747E-2,1.02592744E-1,3.059911E-1,6.3084555E-1,3.378666E-1,-1.6217677E-2,-8.597988E-3,-1.6865155E-2,-2.9858625E-2,-3.8701745E-3,-1.0461069E-2,-2.3610063E-4,-3.9664316E-3,-6.181678E-3,3.561881E-3,2.9400231E-2,8.094309E-3,2.7114037E-2,1.2332988E-2,7.549607E-3,1.805701E-2],"categories":[],"categories_nodes":[],"categories_segments":[],"categories_sizes":[],"default_left":[0,0,0,0,0,0,0,0,0,0,0,0,0,0,0,0,0,0,0,0,0,0,0,0,0,0,0,0,0,0,0],"id":30,"left_children":[1,3,5,7,9,11,13,15,17,19,21,23,25,27,29,-1,-1,-1,-1,-1,-1,-1,-1,-1,-1,-1,-1,-1,-1,-1,-1],"loss_changes":[4.0250867E2,1.01923965E2,6.461095E1,2.2401703E1,1.9700542E1,1.6992016E1,2.1186142E1,1.1896927E1,8.168655E0,1.4076572E1,4.384921E0,1.0966116E1,1.2072533E1,1.8750275E1,2.5597565E1,0E0,0E0,0E0,0E0,0E0,0E0,0E0,0E0,0E0,0E0,0E0,0E0,0E0,0E0,0E0,0E0],"parents":[2147483647,0,0,1,1,2,2,3,3,4,4,5,5,6,6,7,7,8,8,9,9,10,10,11,11,12,12,13,13,14,14],"right_children":[2,4,6,8,10,12,14,16,18,20,22,24,26,28,30,-1,-1,-1,-1,-1,-1,-1,-1,-1,-1,-1,-1,-1,-1,-1,-1],"split_conditions":[4.4444446E-2,-2.25E-1,2.5E-1,1E0,-8.571429E-2,1E0,-2E0,-2E0,4E0,1E0,3.7E-2,-3.9E-1,-5E0,-2.1E-2,3.376279E-2,-1.6217677E-2,-8.597988E-3,-1.6865155E-2,-2.9858625E-2,-3.8701745E-3,-1.0461069E-2,-2.3610063E-4,-3.9664316E-3,-6.181678E-3,3.561881E-3,2.9400231E-2,8.094309E-3,2.7114037E-2,1.2332988E-2,7.549607E-3,1.805701E-2],"split_indices":[0,0,0,9,0,9,5,5,5,9,12,14,5,12,12,0,0,0,0,0,0,0,0,0,0,0,0,0,0,0,0],"split_type":[0,0,0,0,0,0,0,0,0,0,0,0,0,0,0,0,0,0,0,0,0,0,0,0,0,0,0,0,0,0,0],"sum_hessian":[9.516419E3,5.3676772E3,4.1487417E3,1.4723151E3,3.895362E3,2.700771E3,1.447971E3,1.1377716E3,3.345434E2,1.8821707E3,2.0131915E3,2.1958777E3,5.048933E2,3.177987E2,1.1301722E3,2.3340796E2,9.0436365E2,2.8103015E2,5.351325E1,1.5214956E3,3.6067505E2,1.6726492E3,3.4054233E2,1.08515144E2,2.0873625E3,2.4392696E1,4.805006E2,1.403505E2,1.7744821E2,8.5345337E2,2.7671887E2],"tree_param":{"num_deleted":"0","num_feature":"17","num_nodes":"31","size_leaf_vector":"1"}},{"base_weights":[1.9887213E-3,-2.2086565E-1,2.0957659E-1,-4.7715232E-1,-1.3090701E-1,6.1944984E-2,3.6732545E-1,-5.6758296E-1,-2.2853039E-1,-1.893606E-1,5.731075E-2,3.2041803E-2,2.7094626E-1,1.5167132E-1,4.3312535E-1,-2.8477471E-2,-1.5535075E-2,-8.403933E-3,1.4058824E-2,-7.3463293E-3,-1.4378605E-3,9.7091595E-4,1.907289E-2,2.2559029E-3,-4.045813E-3,1.2439387E-2,2.39885E-3,1.2458863E-3,8.360638E-3,1.1176419E-2,1.9098904E-2],"categories":[],"categories_nodes":[],"categories_segments":[],"categories_sizes":[],"default_left":[0,0,0,0,0,0,0,0,0,0,0,0,0,0,0,0,0,0,0,0,0,0,0,0,0,0,0,0,0,0,0],"id":31,"left_children":[1,3,5,7,9,11,13,15,17,19,21,23,25,27,29,-1,-1,-1,-1,-1,-1,-1,-1,-1,-1,-1,-1,-1,-1,-1,-1],"loss_changes":[4.4158005E2,1.06068665E2,1.1506731E2,2.6751587E1,3.7513626E1,1.5953343E1,3.383246E1,1.6142029E1,1.1663277E1,2.0412506E1,1.1646994E1,1.6111391E1,8.736607E0,7.823061E0,2.2321075E1,0E0,0E0,0E0,0E0,0E0,0E0,0E0,0E0,0E0,0E0,0E0,0E0,0E0,0E0,0E0,0E0],"parents":[2147483647,0,0,1,1,2,2,3,3,4,4,5,5,6,6,7,7,8,8,9,9,10,10,11,11,12,12,13,13,14,14],"right_children":[2,4,6,8,10,12,14,16,18,20,22,24,26,28,30,-1,-1,-1,-1,-1,-1,-1,-1,-1,-1,-1,-1,-1,-1,-1,-1],"split_conditions":[-0E0,-2E-1,1E-1,-1.4E1,1.2857144E-1,7.9E1,3.3333335E-2,-5.5E-2,9.6E-2,4.4444446E-2,4.4E-1,1.647929E-1,1E0,3.3E1,1E0,-2.8477471E-2,-1.5535075E-2,-8.403933E-3,1.4058824E-2,-7.3463293E-3,-1.4378605E-3,9.7091595E-4,1.907289E-2,2.2559029E-3,-4.045813E-3,1.2439387E-2,2.39885E-3,1.2458863E-3,8.360638E-3,1.1176419E-2,1.9098904E-2],"split_indices":[2,0,0,2,1,2,1,12,15,0,14,14,5,2,9,0,0,0,0,0,0,0,0,0,0,0,0,0,0,0,0],"split_type":[0,0,0,0,0,0,0,0,0,0,0,0,0,0,0,0,0,0,0,0,0,0,0,0,0,0,0,0,0,0,0],"sum_hessian":[9.543228E3,4.602348E3,4.9408794E3,1.1946263E3,3.4077214E3,2.5530046E3,2.3878745E3,8.750601E2,3.1956628E2,2.6001907E3,8.075308E2,2.2344592E3,3.185454E2,5.5902325E2,1.8288513E3,9.881987E1,7.7624023E2,2.981003E2,2.1465958E1,1.8667096E3,7.3348114E2,7.751567E2,3.237419E1,1.77584E3,4.586194E2,1.8110666E2,1.3743874E2,3.0011078E2,2.5891245E2,1.4115121E3,4.173393E2],"tree_param":{"num_deleted":"0","num_feature":"17","num_nodes":"31","size_leaf_vector":"1"}},{"base_weights":[5.1420005E-3,-2.0352232E-1,1.9949673E-1,-4.3643448E-1,-9.240872E-2,1.1020236E-1,4.719365E-1,-4.777645E-1,-2.8987147E-2,-1.5855455E-1,4.80689E-2,1.968015E-2,2.1611093E-1,2.516799E-1,5.5988985E-1,-1.67635E-2,-8.83549E-3,-3.3756995E-3,1.4827293E-2,-1.8443324E-2,-4.2180535E-3,-6.7197727E-3,3.3818916E-3,-5.204543E-4,6.532348E-3,2.2375181E-2,5.752624E-3,9.055504E-3,-1.6635882E-2,1.4718855E-2,2.3072638E-2],"categories":[],"categories_nodes":[],"categories_segments":[],"categories_sizes":[],"default_left":[0,0,0,0,0,0,0,0,0,0,0,0,0,0,0,0,0,0,0,0,0,0,0,0,0,0,0,0,0,0,0],"id":32,"left_children":[1,3,5,7,9,11,13,15,17,19,21,23,25,27,29,-1,-1,-1,-1,-1,-1,-1,-1,-1,-1,-1,-1,-1,-1,-1,-1],"loss_changes":[3.851603E2,1.18489685E2,1.1957085E2,2.489212E1,2.8831823E1,3.5513046E1,2.3367706E1,1.9770233E1,6.0555873E0,1.718911E1,1.7508177E1,1.4661255E1,2.1883568E1,1.4247856E1,1.21762085E1,0E0,0E0,0E0,0E0,0E0,0E0,0E0,0E0,0E0,0E0,0E0,0E0,0E0,0E0,0E0,0E0],"parents":[2147483647,0,0,1,1,2,2,3,3,4,4,5,5,6,6,7,7,8,8,9,9,10,10,11,11,12,12,13,13,14,14],"right_children":[2,4,6,8,10,12,14,16,18,20,22,24,26,28,30,-1,-1,-1,-1,-1,-1,-1,-1,-1,-1,-1,-1,-1,-1,-1,-1],"split_conditions":[-0E0,-1.875E-1,2.1428572E-1,-4E0,6.666667E-2,1.1111111E-2,1.5E1,-1.6666667E-1,6.6095695E-2,-5E0,-1.4E1,1.6E1,-5E0,1.42E2,1E0,-1.67635E-2,-8.83549E-3,-3.3756995E-3,1.4827293E-2,-1.8443324E-2,-4.2180535E-3,-6.7197727E-3,3.3818916E-3,-5.204543E-4,6.532348E-3,2.2375181E-2,5.752624E-3,9.055504E-3,-1.6635882E-2,1.4718855E-2,2.3072638E-2],"split_indices":[2,0,0,2,0,0,2,1,15,5,3,3,5,3,9,0,0,0,0,0,0,0,0,0,0,0,0,0,0,0,0],"split_type":[0,0,0,0,0,0,0,0,0,0,0,0,0,0,0,0,0,0,0,0,0,0,0,0,0,0,0,0,0,0,0],"sum_hessian":[9.495256E3,4.5790356E3,4.91622E3,1.4779935E3,3.1010422E3,3.7037048E3,1.2125151E3,1.3417216E3,1.3627199E2,2.108226E3,9.928162E2,1.9975469E3,1.7061581E3,3.4711536E2,8.653998E2,9.28956E2,4.1276556E2,1.1818771E2,1.8084278E1,7.856091E1,2.0296652E3,1.901775E2,8.026387E2,1.68369E3,3.1385693E2,7.369815E1,1.6324598E3,3.2736884E2,1.9746506E1,6.526617E2,2.1273811E2],"tree_param":{"num_deleted":"0","num_feature":"17","num_nodes":"31","size_leaf_vector":"1"}},{"base_weights":[-6.375925E-3,-2.0059577E-1,2.017114E-1,-3.2655233E-1,-2.2541596E-2,2.2551572E-2,3.1092507E-1,-6.092007E-1,-2.7523753E-1,-5.5832714E-3,-4.5012474E-1,-4.530646E-3,3.7176508E-1,2.5090903E-1,5.43966E-1,-2.0769754E-2,-7.4896635E-3,-1.109675E-2,-5.375153E-3,-6.064931E-3,1.0060617E-3,-2.2968702E-2,-5.0788294E-3,2.327112E-2,-4.4956864E-4,1.5725762E-2,8.2635385E-4,2.0549418E-2,6.8987045E-3,-1.601954E-3,1.7408544E-2],"categories":[],"categories_nodes":[],"categories_segments":[],"categories_sizes":[],"default_left":[0,0,0,0,0,0,0,0,0,0,0,0,0,0,0,0,0,0,0,0,0,0,0,0,0,0,0,0,0,0,0],"id":33,"left_children":[1,3,5,7,9,11,13,15,17,19,21,23,25,27,29,-1,-1,-1,-1,-1,-1,-1,-1,-1,-1,-1,-1,-1,-1,-1,-1],"loss_changes":[3.8498163E2,1.1049208E2,8.9975006E1,4.1685486E1,1.480735E1,1.6483446E1,3.9822144E1,1.3054047E1,2.2157608E1,1.5121681E1,6.7726192E0,1.3212526E1,6.5670357E0,2.052185E1,1.2706406E1,0E0,0E0,0E0,0E0,0E0,0E0,0E0,0E0,0E0,0E0,0E0,0E0,0E0,0E0,0E0,0E0],"parents":[2147483647,0,0,1,1,2,2,3,3,4,4,5,5,6,6,7,7,8,8,9,9,10,10,11,11,12,12,13,13,14,14],"right_children":[2,4,6,8,10,12,14,16,18,20,22,24,26,28,30,-1,-1,-1,-1,-1,-1,-1,-1,-1,-1,-1,-1,-1,-1,-1,-1],"split_conditions":[1E0,-2.1428572E-2,1.1111111E-2,-3.857143E-1,1.26E2,4.9E1,3.5E-1,-6E0,-3.1E1,-1.4E1,-1E-3,-3.26E2,1.3E-2,-5E0,3E0,-2.0769754E-2,-7.4896635E-3,-1.109675E-2,-5.375153E-3,-6.064931E-3,1.0060617E-3,-2.2968702E-2,-5.0788294E-3,2.327112E-2,-4.4956864E-4,1.5725762E-2,8.2635385E-4,2.0549418E-2,6.8987045E-3,-1.601954E-3,1.7408544E-2],"split_indices":[2,0,0,0,3,3,0,2,2,3,12,3,12,5,2,0,0,0,0,0,0,0,0,0,0,0,0,0,0,0,0],"split_type":[0,0,0,0,0,0,0,0,0,0,0,0,0,0,0,0,0,0,0,0,0,0,0,0,0,0,0,0,0,0,0],"sum_hessian":[9.523784E3,4.9260522E3,4.5977314E3,2.8846208E3,2.0414315E3,1.7417231E3,2.856008E3,4.415631E2,2.4430579E3,1.9645297E3,7.6901924E1,1.6172864E3,1.2443682E2,2.2727688E3,5.8323926E2,3.5789468E2,8.366841E1,1.2291344E3,1.2139233E3,3.253577E2,1.639172E3,3.5402615E1,4.1499313E1,2.0416912E1,1.5968694E3,8.588326E1,3.8553555E1,1.0319353E2,2.1695754E3,3.3400745E1,5.498385E2],"tree_param":{"num_deleted":"0","num_feature":"17","num_nodes":"31","size_leaf_vector":"1"}},{"base_weights":[3.5552905E-4,-2.1968782E-1,1.6960806E-1,-3.5712853E-1,-4.612291E-2,3.2039605E-2,3.062915E-1,-6.9738007E-1,-3.233789E-1,-2.561388E-1,1.64418E-2,-1.6885085E-2,2.1818109E-1,2.5425178E-1,5.515344E-1,-1.891257E-2,-3.5537552E-2,-1.429622E-2,-7.91038E-3,-6.2101646E-3,-2.4014642E-2,-1.3771862E-3,7.526256E-3,-1.5138162E-2,-6.2716375E-5,5.542132E-3,2.8195938E-2,2.133183E-2,6.746009E-3,1.2721373E-2,2.5405638E-2],"categories":[],"categories_nodes":[],"categories_segments":[],"categories_sizes":[],"default_left":[0,0,0,0,0,0,0,0,0,0,0,0,0,0,0,0,0,0,0,0,0,0,0,0,0,0,0,0,0,0,0],"id":34,"left_children":[1,3,5,7,9,11,13,15,17,19,21,23,25,27,29,-1,-1,-1,-1,-1,-1,-1,-1,-1,-1,-1,-1,-1,-1,-1,-1],"loss_changes":[3.5368686E2,9.847722E1,1.0092447E2,2.6233002E1,2.3994358E1,2.437745E1,3.4222336E1,6.008087E0,1.9057999E1,1.1044207E1,2.0586554E1,1.5298081E1,1.3272648E1,2.9680283E1,1.735402E1,0E0,0E0,0E0,0E0,0E0,0E0,0E0,0E0,0E0,0E0,0E0,0E0,0E0,0E0,0E0,0E0],"parents":[2147483647,0,0,1,1,2,2,3,3,4,4,5,5,6,6,7,7,8,8,9,9,10,10,11,11,12,12,13,13,14,14],"right_children":[2,4,6,8,10,12,14,16,18,20,22,24,26,28,30,-1,-1,-1,-1,-1,-1,-1,-1,-1,-1,-1,-1,-1,-1,-1,-1],"split_conditions":[-3E0,-0E0,3.3333335E-2,-1.32E2,-6.2E1,5.1E1,3.9E-2,3.8E1,-3.7142858E-1,3.8E1,1.647929E-1,-5E-1,1.05E2,-5E0,3E0,-1.891257E-2,-3.5537552E-2,-1.429622E-2,-7.91038E-3,-6.2101646E-3,-2.4014642E-2,-1.3771862E-3,7.526256E-3,-1.5138162E-2,-6.2716375E-5,5.542132E-3,2.8195938E-2,2.133183E-2,6.746009E-3,1.2721373E-2,2.5405638E-2],"split_indices":[2,1,1,2,2,2,12,3,1,3,14,1,3,5,5,0,0,0,0,0,0,0,0,0,0,0,0,0,0,0,0],"split_type":[0,0,0,0,0,0,0,0,0,0,0,0,0,0,0,0,0,0,0,0,0,0,0,0,0,0,0,0,0,0,0],"sum_hessian":[9.494761E3,4.1278677E3,5.3668936E3,2.3030754E3,1.8247921E3,2.6754026E3,2.691491E3,2.0605382E2,2.0970217E3,4.181296E2,1.4066625E3,2.1192869E3,5.5611566E2,2.2220222E3,4.6946878E2,1.8317267E2,2.288115E1,5.861767E2,1.510845E3,3.8477945E2,3.3350155E1,1.1117853E3,2.948772E2,6.14192E1,2.0578677E3,5.326865E2,2.3429108E1,1.328935E2,2.0891287E3,3.2961227E2,1.3985654E2],"tree_param":{"num_deleted":"0","num_feature":"17","num_nodes":"31","size_leaf_vector":"1"}},{"base_weights":[3.6103078E-3,-1.9448029E-1,1.8835485E-1,-3.58771E-1,-7.684702E-2,5.5792287E-2,3.3034918E-1,-4.1544104E-1,-1.5259135E-1,-9.577847E-1,-6.848542E-2,3.9414033E-2,4.8143438E-1,2.9042166E-1,6.2575424E-1,-1.9609774E-2,-1.0504298E-2,-5.7122153E-3,1.6345348E-2,-1.0302849E-2,-3.5928227E-2,-3.4231183E-4,-6.0383803E-3,2.5713619E-2,9.179756E-4,1.725355E-2,-8.546746E-3,6.989251E-3,1.4294899E-2,2.111279E-2,6.6750594E-3],"categories":[],"categories_nodes":[],"categories_segments":[],"categories_sizes":[],"default_left":[0,0,0,0,0,0,0,0,0,0,0,0,0,0,0,0,0,0,0,0,0,0,0,0,0,0,0,0,0,0,0],"id":35,"left_children":[1,3,5,7,9,11,13,15,17,19,21,23,25,27,29,-1,-1,-1,-1,-1,-1,-1,-1,-1,-1,-1,-1,-1,-1,-1,-1],"loss_changes":[3.4770514E2,8.85818E1,9.251926E1,2.2286316E1,1.962498E1,1.7714066E1,2.781247E1,2.3101166E1,1.1022118E1,3.2805557E0,2.0075787E1,1.7637342E1,6.92412E0,2.2258713E1,8.70565E0,0E0,0E0,0E0,0E0,0E0,0E0,0E0,0E0,0E0,0E0,0E0,0E0,0E0,0E0,0E0,0E0],"parents":[2147483647,0,0,1,1,2,2,3,3,4,4,5,5,6,6,7,7,8,8,9,9,10,10,11,11,12,12,13,13,14,14],"right_children":[2,4,6,8,10,12,14,16,18,20,22,24,26,28,30,-1,-1,-1,-1,-1,-1,-1,-1,-1,-1,-1,-1,-1,-1,-1,-1],"split_conditions":[-0E0,-1.2941177E-1,1E-1,-1E1,-3.26E2,1.12E2,1.18E2,-3.857143E-1,1.42E2,-9E-3,1E0,-3.26E2,7.549112E-2,3.5E-1,1E0,-1.9609774E-2,-1.0504298E-2,-5.7122153E-3,1.6345348E-2,-1.0302849E-2,-3.5928227E-2,-3.4231183E-4,-6.0383803E-3,2.5713619E-2,9.179756E-4,1.725355E-2,-8.546746E-3,6.989251E-3,1.4294899E-2,2.111279E-2,6.6750594E-3],"split_indices":[2,0,0,2,3,3,2,0,3,13,3,3,15,0,10,0,0,0,0,0,0,0,0,0,0,0,0,0,0,0,0],"split_type":[0,0,0,0,0,0,0,0,0,0,0,0,0,0,0,0,0,0,0,0,0,0,0,0,0,0,0,0,0,0,0],"sum_hessian":[9.499139E3,4.5839688E3,4.9151694E3,1.9118134E3,2.672155E3,2.5427297E3,2.37244E3,1.4988329E3,4.129805E2,2.4057205E1,2.648098E3,2.4495657E3,9.3164085E1,2.0917043E3,2.8073553E2,3.205173E2,1.1783157E3,3.9242947E2,2.0551008E1,7.437221E0,1.6619984E1,1.8528334E3,7.952646E2,2.5098236E1,2.4244673E3,8.323772E1,9.926373E0,1.599993E3,4.917113E2,2.3460764E2,4.612789E1],"tree_param":{"num_deleted":"0","num_feature":"17","num_nodes":"31","size_leaf_vector":"1"}},{"base_weights":[6.737643E-3,-1.8375306E-1,1.8484537E-1,-3.797128E-1,-8.3072335E-2,9.180607E-2,3.972695E-1,-4.4416878E-1,-1.5188509E-1,-1.6439065E-1,2.4853358E-2,4.5717746E-2,2.6504368E-1,3.4749156E-1,6.961874E-1,-2.0439576E-2,-1.0774686E-2,-1.4386381E-2,-2.3469618E-3,-7.334368E-3,-2.9411993E-3,-6.9820243E-3,2.4824443E-3,2.544937E-3,-3.9527807E-3,6.1147907E-3,1.7089164E-2,7.579892E-5,1.1360121E-2,2.3285935E-2,8.73109E-3],"categories":[],"categories_nodes":[],"categories_segments":[],"categories_sizes":[],"default_left":[0,0,0,0,0,0,0,0,0,0,0,0,0,0,0,0,0,0,0,0,0,0,0,0,0,0,0,0,0,0,0],"id":36,"left_children":[1,3,5,7,9,11,13,15,17,19,21,23,25,27,29,-1,-1,-1,-1,-1,-1,-1,-1,-1,-1,-1,-1,-1,-1,-1,-1],"loss_changes":[3.219105E2,9.042142E1,9.6873276E1,2.27789E1,2.6595573E1,2.7223707E1,2.197615E1,2.4193558E1,8.278988E0,9.158928E0,1.9448223E1,1.8723303E1,1.3246132E1,1.3788223E1,6.6516876E0,0E0,0E0,0E0,0E0,0E0,0E0,0E0,0E0,0E0,0E0,0E0,0E0,0E0,0E0,0E0,0E0],"parents":[2147483647,0,0,1,1,2,2,3,3,4,4,5,5,6,6,7,7,8,8,9,9,10,10,11,11,12,12,13,13,14,14],"right_children":[2,4,6,8,10,12,14,16,18,20,22,24,26,28,30,-1,-1,-1,-1,-1,-1,-1,-1,-1,-1,-1,-1,-1,-1,-1,-1],"split_conditions":[-0E0,-1.5E-1,2E-1,-1E1,5E-2,6.1E1,1.14E2,-3.857143E-1,-3.5237208E-2,-3.4E1,-1.4E1,1.847907E-1,1.6E1,3E0,1E0,-2.0439576E-2,-1.0774686E-2,-1.4386381E-2,-2.3469618E-3,-7.334368E-3,-2.9411993E-3,-6.9820243E-3,2.4824443E-3,2.544937E-3,-3.9527807E-3,6.1147907E-3,1.7089164E-2,7.579892E-5,1.1360121E-2,2.3285935E-2,8.73109E-3],"split_indices":[2,0,0,2,0,2,2,0,12,2,3,14,3,2,10,0,0,0,0,0,0,0,0,0,0,0,0,0,0,0,0],"split_type":[0,0,0,0,0,0,0,0,0,0,0,0,0,0,0,0,0,0,0,0,0,0,0,0,0,0,0,0,0,0,0],"sum_hessian":[9.486084E3,4.5836855E3,4.9023984E3,1.554777E3,3.0289084E3,3.4102017E3,1.4921968E3,1.211169E3,3.43608E2,1.7270854E3,1.301823E3,2.694593E3,7.1560864E2,1.2810326E3,2.1116422E2,3.1775296E2,8.93416E2,6.205087E1,2.8155716E2,7.813163E2,9.457691E2,2.3834596E2,1.063477E3,2.2084119E3,4.8618124E2,5.972441E2,1.18364555E2,1.0627632E2,1.1747562E3,1.7557524E2,3.5588963E1],"tree_param":{"num_deleted":"0","num_feature":"17","num_nodes":"31","size_leaf_vector":"1"}},{"base_weights":[1.0706219E-3,-1.8812418E-1,1.7658046E-1,-4.2420375E-1,-1.0698622E-1,9.855463E-2,4.2172918E-1,-7.304842E-1,-3.6921072E-1,-1.5389824E-1,6.440402E-2,1.7930867E-2,1.9614854E-1,1.7864805E-1,4.9400675E-1,-7.603703E-3,-2.5887972E-2,-1.3737676E-2,-5.657183E-3,-7.54922E-3,-1.9839352E-3,-7.045014E-3,3.8359729E-3,-1.0628411E-4,1.2319949E-2,4.4902223E-3,1.1972052E-2,3.716402E-3,2.4736375E-2,1.1968037E-2,1.9918833E-2],"categories":[],"categories_nodes":[],"categories_segments":[],"categories_sizes":[],"default_left":[0,0,0,0,0,0,0,0,0,0,0,0,0,0,0,0,0,0,0,0,0,0,0,0,0,0,0,0,0,0,0],"id":37,"left_children":[1,3,5,7,9,11,13,15,17,19,21,23,25,27,29,-1,-1,-1,-1,-1,-1,-1,-1,-1,-1,-1,-1,-1,-1,-1,-1],"loss_changes":[3.1386087E2,8.708498E1,9.3749664E1,1.9321213E1,2.7238804E1,2.9273365E1,2.070575E1,1.0903084E1,1.5747681E1,2.2794685E1,1.3863607E1,1.7194407E1,1.5813469E1,9.548882E0,1.44665985E1,0E0,0E0,0E0,0E0,0E0,0E0,0E0,0E0,0E0,0E0,0E0,0E0,0E0,0E0,0E0,0E0],"parents":[2147483647,0,0,1,1,2,2,3,3,4,4,5,5,6,6,7,7,8,8,9,9,10,10,11,11,12,12,13,13,14,14],"right_children":[2,4,6,8,10,12,14,16,18,20,22,24,26,28,30,-1,-1,-1,-1,-1,-1,-1,-1,-1,-1,-1,-1,-1,-1,-1,-1],"split_conditions":[-0E0,-2E-1,2.1428572E-1,-4.5E-2,2E-1,2.1428572E-2,1.1E1,-3.8E-1,-1.9E1,-3E1,-1.4E1,7.7E1,3.6E-2,7E-1,3.857143E-1,-7.603703E-3,-2.5887972E-2,-1.3737676E-2,-5.657183E-3,-7.54922E-3,-1.9839352E-3,-7.045014E-3,3.8359729E-3,-1.0628411E-4,1.2319949E-2,4.4902223E-3,1.1972052E-2,3.716402E-3,2.4736375E-2,1.1968037E-2,1.9918833E-2],"split_indices":[2,0,0,12,1,0,2,14,2,2,3,3,12,1,0,0,0,0,0,0,0,0,0,0,0,0,0,0,0,0,0],"split_type":[0,0,0,0,0,0,0,0,0,0,0,0,0,0,0,0,0,0,0,0,0,0,0,0,0,0,0,0,0,0,0],"sum_hessian":[9.450061E3,4.547697E3,4.9023643E3,1.1621292E3,3.3855674E3,3.7198225E3,1.1825415E3,1.7502956E2,9.870996E2,2.6581067E3,7.274607E2,2.0376631E3,1.6821595E3,2.7182425E2,9.107173E2,3.8669735E1,1.3635982E2,6.609635E2,3.261361E2,1.2567029E3,1.4014038E3,1.2681172E2,6.00649E2,1.9329646E3,1.0469844E2,1.370104E3,3.1205557E2,2.5167557E2,2.0148674E1,5.86165E2,3.245523E2],"tree_param":{"num_deleted":"0","num_feature":"17","num_nodes":"31","size_leaf_vector":"1"}},{"base_weights":[3.2729155E-3,-1.8874723E-1,1.5560196E-1,-2.9158887E-1,-8.8298514E-2,6.336989E-2,2.731072E-1,-5.799648E-1,-2.512245E-1,-1.2258706E-1,1.2408332E-1,-7.0738923E-3,9.877337E-2,2.3788087E-1,5.688577E-1,-1.8113215E-2,1.4191156E-2,-6.054832E-3,-1.4070793E-2,-1.6149117E-2,-3.1971615E-3,2.541701E-3,1.9538054E-2,1.1315416E-3,-4.9230135E-3,1.3801718E-2,2.6012245E-3,5.711595E-3,1.4068115E-2,1.7973404E-2,-1.91283E-2],"categories":[],"categories_nodes":[],"categories_segments":[],"categories_sizes":[],"default_left":[0,0,0,0,0,0,0,0,0,0,0,0,0,0,0,0,0,0,0,0,0,0,0,0,0,0,0,0,0,0,0],"id":38,"left_children":[1,3,5,7,9,11,13,15,17,19,21,23,25,27,29,-1,-1,-1,-1,-1,-1,-1,-1,-1,-1,-1,-1,-1,-1,-1,-1],"loss_changes":[2.7639264E2,4.315544E1,5.708886E1,2.3891006E1,1.5424925E1,7.366251E0,2.4001831E1,6.623169E0,1.941307E1,1.2075771E1,6.058621E0,6.960692E0,8.528563E0,2.2648155E1,9.356689E0,0E0,0E0,0E0,0E0,0E0,0E0,0E0,0E0,0E0,0E0,0E0,0E0,0E0,0E0,0E0,0E0],"parents":[2147483647,0,0,1,1,2,2,3,3,4,4,5,5,6,6,7,7,8,8,9,9,10,10,11,11,12,12,13,13,14,14],"right_children":[2,4,6,8,10,12,14,16,18,20,22,24,26,28,30,-1,-1,-1,-1,-1,-1,-1,-1,-1,-1,-1,-1,-1,-1,-1,-1],"split_conditions":[-2.1428572E-2,-1.6666667E-1,1.6666667E-1,-5E-1,2E-1,-0E0,5.6666666E-1,1.4E-1,3.7E-2,-5E0,3.5E-1,2.7557252E-2,-5E0,3.9E-2,1.34E-1,-1.8113215E-2,1.4191156E-2,-6.054832E-3,-1.4070793E-2,-1.6149117E-2,-3.1971615E-3,2.541701E-3,1.9538054E-2,1.1315416E-3,-4.9230135E-3,1.3801718E-2,2.6012245E-3,5.711595E-3,1.4068115E-2,1.7973404E-2,-1.91283E-2],"split_indices":[0,1,1,1,1,1,1,16,12,5,14,13,5,12,16,0,0,0,0,0,0,0,0,0,0,0,0,0,0,0,0],"split_type":[0,0,0,0,0,0,0,0,0,0,0,0,0,0,0,0,0,0,0,0,0,0,0,0,0,0,0,0,0,0,0],"sum_hessian":[9.447236E3,4.179049E3,5.2681875E3,2.0639885E3,2.1150605E3,2.952362E3,2.3158252E3,2.5178537E2,1.8122031E3,1.8214194E3,2.936411E2,9.8776483E2,1.9645972E3,2.070961E3,2.4486436E2,2.4663542E2,5.149946E0,1.4787534E3,3.3344965E2,6.6355446E1,1.755064E3,2.7432086E2,1.9320248E1,7.691298E2,2.1863506E2,6.2291763E1,1.9023054E3,1.7193641E3,3.5159683E2,2.3936499E2,5.4993744E0],"tree_param":{"num_deleted":"0","num_feature":"17","num_nodes":"31","size_leaf_vector":"1"}},{"base_weights":[-8.81014E-3,-1.5931651E-1,1.7946783E-1,-2.749653E-1,-1.9221412E-2,4.2572077E-2,3.293562E-1,-4.4949508E-1,-1.7511258E-1,-5.4549757E-2,1.9512375E-1,6.070884E-2,-5.0720596E-1,1.7900988E-1,4.4900024E-1,-2.3025587E-2,-1.1973845E-2,-3.976462E-3,-1.0704534E-2,-1.3981547E-2,-1.2765757E-3,-1.0125441E-2,6.9348067E-3,1.5183105E-3,2.584117E-2,-8.883261E-3,-3.007331E-2,4.739389E-3,1.6523955E-2,1.2017706E-2,2.5432184E-2],"categories":[],"categories_nodes":[],"categories_segments":[],"categories_sizes":[],"default_left":[0,0,0,0,0,0,0,0,0,0,0,0,0,0,0,0,0,0,0,0,0,0,0,0,0,0,0,0,0,0,0],"id":39,"left_children":[1,3,5,7,9,11,13,15,17,19,21,23,25,27,29,-1,-1,-1,-1,-1,-1,-1,-1,-1,-1,-1,-1,-1,-1,-1,-1],"loss_changes":[2.6726642E2,8.491817E1,8.5962875E1,4.995923E1,1.7967627E1,2.1878784E1,3.589543E1,1.6420517E1,1.4090473E1,1.0034594E1,6.522751E0,1.711406E1,7.029728E0,6.8556175E0,2.1145462E1,0E0,0E0,0E0,0E0,0E0,0E0,0E0,0E0,0E0,0E0,0E0,0E0,0E0,0E0,0E0,0E0],"parents":[2147483647,0,0,1,1,2,2,3,3,4,4,5,5,6,6,7,7,8,8,9,9,10,10,11,11,12,12,13,13,14,14],"right_children":[2,4,6,8,10,12,14,16,18,20,22,24,26,28,30,-1,-1,-1,-1,-1,-1,-1,-1,-1,-1,-1,-1,-1,-1,-1,-1],"split_conditions":[2.1428572E-2,-4E0,1.5E1,-2E-1,6.2E1,1.62E2,1.6666667E-1,-1.27E2,1E0,-5E-1,-2.6923078E-1,7.5E-1,3.857143E-1,7.7E1,5E0,-2.3025587E-2,-1.1973845E-2,-3.976462E-3,-1.0704534E-2,-1.3981547E-2,-1.2765757E-3,-1.0125441E-2,6.9348067E-3,1.5183105E-3,2.584117E-2,-8.883261E-3,-3.007331E-2,4.739389E-3,1.6523955E-2,1.2017706E-2,2.5432184E-2],"split_indices":[0,2,2,0,2,3,1,2,9,1,0,1,0,3,11,0,0,0,0,0,0,0,0,0,0,0,0,0,0,0,0],"split_type":[0,0,0,0,0,0,0,0,0,0,0,0,0,0,0,0,0,0,0,0,0,0,0,0,0,0,0,0,0,0,0],"sum_hessian":[9.429692E3,5.240597E3,4.189095E3,2.8702432E3,2.370354E3,2.190111E3,1.998984E3,1.0432587E3,1.8269845E3,2.0355933E3,3.3476074E2,2.1210295E3,6.908158E1,8.869399E2,1.1120442E3,1.4068884E2,9.025698E2,1.4816439E3,3.4534064E2,5.659383E1,1.9789994E3,2.0683382E1,3.1407736E2,2.095661E3,2.5368626E1,4.955602E1,1.952556E1,8.408046E2,4.613524E1,9.934378E2,1.1860639E2],"tree_param":{"num_deleted":"0","num_feature":"17","num_nodes":"31","size_leaf_vector":"1"}},{"base_weights":[-1.0441903E-2,-1.879231E-1,1.4456403E-1,-3.485261E-1,-8.394463E-2,6.7255413E-3,2.7669358E-1,-6.106944E-1,-2.854683E-1,-2.8257027E-1,-4.333576E-2,-3.4034718E-2,1.4750472E-1,1.0491249E-1,3.4533817E-1,-1.4938496E-2,-2.7649112E-2,-6.793136E-3,-1.5914971E-2,1.0883971E-2,-8.894094E-3,-2.7566692E-3,2.3549702E-3,-1.4903701E-2,-6.71103E-4,3.905831E-3,3.0619772E-2,8.537505E-3,1.0794743E-3,9.383171E-3,1.9660823E-2],"categories":[],"categories_nodes":[],"categories_segments":[],"categories_sizes":[],"default_left":[0,0,0,0,0,0,0,0,0,0,0,0,0,0,0,0,0,0,0,0,0,0,0,0,0,0,0,0,0,0,0],"id":40,"left_children":[1,3,5,7,9,11,13,15,17,19,21,23,25,27,29,-1,-1,-1,-1,-1,-1,-1,-1,-1,-1,-1,-1,-1,-1,-1,-1],"loss_changes":[2.599385E2,7.353012E1,9.185704E1,2.8438705E1,2.1565464E1,1.4175807E1,3.0329697E1,1.1274818E1,2.008776E1,4.1793175E0,1.315282E1,1.0330592E1,8.250674E0,9.113316E0,1.8366684E1,0E0,0E0,0E0,0E0,0E0,0E0,0E0,0E0,0E0,0E0,0E0,0E0,0E0,0E0,0E0,0E0],"parents":[2147483647,0,0,1,1,2,2,3,3,4,4,5,5,6,6,7,7,8,8,9,9,10,10,11,11,12,12,13,13,14,14],"right_children":[2,4,6,8,10,12,14,16,18,20,22,24,26,28,30,-1,-1,-1,-1,-1,-1,-1,-1,-1,-1,-1,-1,-1,-1,-1,-1],"split_conditions":[-1E0,-1.5E-1,2.5E-2,-3.857143E-1,-7.7E1,5.1E1,8.571429E-2,1E0,3.6E-2,-1E-1,2E-1,-5E-1,7E0,-1E0,1.32E2,-1.4938496E-2,-2.7649112E-2,-6.793136E-3,-1.5914971E-2,1.0883971E-2,-8.894094E-3,-2.7566692E-3,2.3549702E-3,-1.4903701E-2,-6.71103E-4,3.905831E-3,3.0619772E-2,8.537505E-3,1.0794743E-3,9.383171E-3,1.9660823E-2],"split_indices":[2,1,1,0,2,2,0,9,12,1,1,1,5,5,2,0,0,0,0,0,0,0,0,0,0,0,0,0,0,0,0],"split_type":[0,0,0,0,0,0,0,0,0,0,0,0,0,0,0,0,0,0,0,0,0,0,0,0,0,0,0,0,0,0,0],"sum_hessian":[9.446667E3,4.4039497E3,5.042718E3,1.7297938E3,2.6741558E3,2.4685547E3,2.574163E3,3.337042E2,1.3960897E3,4.5291336E2,2.2212424E3,1.9148888E3,5.5366583E2,7.3567804E2,1.838485E3,2.4681364E2,8.6890564E1,1.1266033E3,2.6948636E2,9.019678E0,4.4389368E2,1.5884601E3,6.3278235E2,4.605902E1,1.8688297E3,5.440295E2,9.636319E0,2.0311517E2,5.3256287E2,1.66554E3,1.7294495E2],"tree_param":{"num_deleted":"0","num_feature":"17","num_nodes":"31","size_leaf_vector":"1"}},{"base_weights":[2.3459735E-4,-1.4529385E-1,1.8997663E-1,-2.6820055E-1,-3.1056628E-2,3.8974587E-2,3.1307304E-1,-4.1445634E-1,-1.8649302E-1,-1.3028878E-2,-5.264811E-1,-9.703644E-3,2.077135E-1,2.6044044E-1,6.143182E-1,-2.3899723E-2,-1.11548165E-2,-2.1681933E-2,-4.8704487E-3,-5.88499E-3,5.448295E-4,1.9690242E-2,-1.6914759E-2,1.5244386E-3,-6.978109E-3,4.8220223E-3,2.268147E-2,6.5433225E-3,1.3297087E-2,2.6408581E-2,1.6498797E-2],"categories":[],"categories_nodes":[],"categories_segments":[],"categories_sizes":[],"default_left":[0,0,0,0,0,0,0,0,0,0,0,0,0,0,0,0,0,0,0,0,0,0,0,0,0,0,0,0,0,0,0],"id":41,"left_children":[1,3,5,7,9,11,13,15,17,19,21,23,25,27,29,-1,-1,-1,-1,-1,-1,-1,-1,-1,-1,-1,-1,-1,-1,-1,-1],"loss_changes":[2.6116953E2,7.514748E1,7.629964E1,3.0735275E1,2.4780994E1,1.5155812E1,3.5698135E1,1.4747818E1,2.1324306E1,1.5305776E1,4.6732597E0,1.933947E1,1.0520237E1,1.4813477E1,5.260956E0,0E0,0E0,0E0,0E0,0E0,0E0,0E0,0E0,0E0,0E0,0E0,0E0,0E0,0E0,0E0,0E0],"parents":[2147483647,0,0,1,1,2,2,3,3,4,4,5,5,6,6,7,7,8,8,9,9,10,10,11,11,12,12,13,13,14,14],"right_children":[2,4,6,8,10,12,14,16,18,20,22,24,26,28,30,-1,-1,-1,-1,-1,-1,-1,-1,-1,-1,-1,-1,-1,-1,-1,-1],"split_conditions":[4E0,-5.7142857E-2,2.5E-2,-4.8E1,1.26E2,6.4E1,3.857143E-1,-4.5E-1,-5E0,-6.6E1,-7.1E-2,1.647929E-1,3.8E1,3.6E-2,-4.4E-2,-2.3899723E-2,-1.11548165E-2,-2.1681933E-2,-4.8704487E-3,-5.88499E-3,5.448295E-4,1.9690242E-2,-1.6914759E-2,1.5244386E-3,-6.978109E-3,4.8220223E-3,2.268147E-2,6.5433225E-3,1.3297087E-2,2.6408581E-2,1.6498797E-2],"split_indices":[2,0,1,2,3,2,0,0,5,2,12,14,3,12,12,0,0,0,0,0,0,0,0,0,0,0,0,0,0,0,0],"split_type":[0,0,0,0,0,0,0,0,0,0,0,0,0,0,0,0,0,0,0,0,0,0,0,0,0,0,0,0,0,0,0],"sum_hessian":[9.456257E3,5.35178E3,4.104477E3,2.577416E3,2.774364E3,1.8438939E3,2.260583E3,9.2234796E2,1.655068E3,2.6779438E3,9.642005E1,1.43179E3,4.1210394E2,1.9259514E3,3.346316E2,9.077715E1,8.315708E2,7.006386E1,1.5850042E3,3.8893652E2,2.2890073E3,2.4437113E0,9.397634E1,1.1266672E3,3.0512277E2,3.8077374E2,3.1330206E1,1.5656011E3,3.6035025E2,6.2727047E1,2.7190457E2],"tree_param":{"num_deleted":"0","num_feature":"17","num_nodes":"31","size_leaf_vector":"1"}},{"base_weights":[-1.3630666E-3,-1.3880312E-1,1.7100435E-1,-3.1226853E-1,-7.3917285E-2,1.00076154E-1,3.2132116E-1,-2.5211027E-1,-5.1753056E-1,-1.3818023E-1,-7.4996813E-3,6.695225E-2,2.2541247E-1,2.5110942E-1,5.785822E-1,1.3412498E-3,-8.6654285E-3,-1.8165091E-2,-2.385755E-3,-2.898553E-3,-1.0406357E-2,-7.983178E-4,5.734172E-3,1.0870442E-3,6.0863933E-3,4.1324766E-3,1.2214377E-2,6.0092467E-3,1.5102385E-2,2.6491879E-2,1.49005335E-2],"categories":[],"categories_nodes":[],